svm_type c_svc
kernel_type rbf
gamma 2.0
nr_class 3
total_sv 959
rho -0.07667860354092157 -0.17463328663685096 -0.11581680922773432
label 1 2 3
nr_sv 407 291 261
SV
0.0 0.16662970173998728 0:-0.03258078202870643 1:0.014042606787212905 2:0.03652623810688496 3:-0.041916637679472506 4:-0.13160210304384348 5:-0.1521780287206755 6:-0.1298446244451514 7:0.06704552958557851 8:-0.2379125280679392 9:0.19565371473812831 10:0.0012083857143658386 11:-0.008655035089543208 12:0.11504665931720094 13:-0.05945812651095049 14:0.0957212495822759 15:-0.012560880140899669 16:-0.0580984980174366 17:-0.09793497917480984 18:0.053369834899704295 19:0.16281790050254508 20:-0.03264018467215942 21:0.061872985276479324 22:-0.026851444875516904 23:-0.05403921739885102 24:0.07208606996885569 25:0.1738528703694654 26:0.06574865380170097 27:-0.0023559856095961137 28:0.24036092963002506 29:0.15634866575569215 30:0.262095510736435 31:0.19975530060360971 32:-0.08068619257134724 33:-0.02132596854554209 34:-0.1743629743819879 35:0.06935387804874596 36:-0.18224699848008702 37:-0.1981193657846579 38:-0.11591622264187762 39:-0.10014307274322763 40:0.02649532081036445 41:0.2985086788413411 42:-0.49141378956078935 43:-0.006365148785217279 44:-0.06074681441175437 45:0.24686417116011686 46:0.1530248758755605 47:-0.11446603483093269 48:0.04285212665866303 49:-0.052203532556352995 50:-0.14225844780414698 51:0.17170422987600073 52:0.1701771797963017 53:0.21584598522734863 54:0.1485913919972649 55:-0.13116287561829942 56:-0.1876899640706887 57:0.06948518925886525 58:-0.03242100678454714 59:-0.03552897259952846 60:0.11673636977921456 61:0.36645451158842135 62:0.4823062280671553 63:0.1557211285086204 64:-0.023655597235187575 65:0.23020065908192253 66:0.049652456838405454 67:-0.22565799375456655 68:-0.1761316234006127 69:0.011053598700231303 70:0.07307108218270024 71:0.03272519794197192 72:0.025092161471007957 73:0.07415737784686302 74:0.1902925560695908 75:-0.34539034599629215 76:-0.17606784868043301 77:-0.01090829217673059 78:0.060602387059316365 79:0.010334765054598355 80:0.12440336246918447 81:0.08008145133849169 82:0.009684187982052665 83:-0.09186688725269884 84:-0.05489569922560286 85:-0.11854508008418342 86:-0.13933377393120278 87:0.14771116539463805 88:-0.07603365584981449 89:-0.11517132476032713 90:0.09756815030691124 91:0.10973450416551574 92:0.04742810052915436 93:-0.1631767245508956 94:0.22480004833598463 95:0.2358162846015563 96:0.02122985378466539 97:-0.20255840673908682 98:-0.02994193387315861 99:-0.3956541049780973 
0.7621377097167435 0.547061664261396 0:-0.027329520598226586 1:0.015831269652229495 2:-0.014910995396406404 3:-0.052469169155318074 4:0.0509017269077358 5:-0.017299431317407053 6:-0.023273117525102374 7:0.12462688188618122 8:-0.021902373214217178 9:0.03245893222416421 10:0.043324346728380356 11:-0.029006537874876913 12:0.14907655194559033 13:0.055135048318938264 14:0.2070685113358458 15:-0.06880667524231263 16:-0.00589218975153081 17:-0.10484656741065014 18:0.019514671760668578 19:0.11141826510161218 20:0.05143544012786951 21:-0.007326235075503722 22:0.08741536756901232 23:0.0531490127072786 24:-0.05857227777281719 25:-0.10106646811200846 26:0.13666539655026017 27:0.028030039409307164 28:0.02096378015396405 29:-0.07343576819176259 30:0.049614061340233176 31:0.04428303083401647 32:0.06496942682780656 33:0.1737966492700464 34:-0.1759895897618946 35:-0.06706285583773745 36:-0.2483586201930884 37:-0.20511884225398383 38:-0.04005793622876449 39:-0.09088349924617743 40:-0.12414805774369331 41:0.07717130599884292 42:-0.304046205677707 43:0.017206939004688348 44:-0.07979776181994093 45:0.24832932999202117 46:0.18596875680308056 47:-0.12634860002433976 48:-0.06481087063394586 49:0.08710661547363195 50:-0.013157861877143653 51:0.010599458558592298 52:0.0067525135412530935 53:0.23091743461007738 54:0.21775744379119838 55:-0.16703344922596972 56:-0.2361608547744194 57:0.24698573586225406 58:0.08387896968400062 59:0.11517678856421927 60:0.13809618233923016 61:0.2933394801404863 62:0.3885883889412355 63:0.21148165992343082 64:0.05370401415338555 65:0.07662637174021078 66:0.019743705935704264 67:0.02428093244419545 68:0.06817824195551363 69:-0.31399190105994096 70:-0.11771720994537872 71:-0.17226354562225318 72:0.013062339585902348 73:0.021019614732449943 74:0.09610115169476553 75:-0.06861760660234426 76:0.17715912523674285 77:-0.007584755028825087 78:0.0866401901514392 79:0.0988474702620881 80:0.08078331497322036 81:0.06342478542353952 82:0.07617926886228987 83:0.020338210065392763 84:0.014903224884061416 85:-0.2323114458590925 86:-0.047752760342339697 87:0.09412688155489578 88:-0.317348524387221 89:-0.15317588879142383 90:0.07269999423972015 91:-0.01851117725727554 92:0.2880267429028159 93:0.1335023360759035 94:0.14390098570646778 95:0.07536478778630822 96:-0.21155649627820258 97:-0.2582867855730823 98:-0.11339294838358015 99:-0.1552472982742629 
0.07887434963443077 0.0 0:-0.024874022001688815 1:0.019379759987001217 2:0.017644324434982064 3:-0.06807578110702957 4:-0.07807762548598843 5:-0.11621306067726365 6:-0.12066087343669392 7:0.0831449968973609 8:-0.2280738241575547 9:0.18986462454254696 10:0.002132466312646581 11:-0.01671784182997779 12:0.1460850700374819 13:-0.0416444886431817 14:0.11920903266302 15:-0.01325343870500544 16:-0.03833424775193285 17:-0.1252212106095493 18:0.051999973762466255 19:0.1679490048823162 20:-0.0417833181100614 21:0.03970968572631408 22:-2.897976318946347E-4 23:-0.02543423056331203 24:-0.0015544163467356182 25:0.06659188163180407 26:0.034708302406024946 27:-0.03131269401411274 28:0.2335599700763721 29:0.1312689013970381 30:0.24981952419201536 31:0.19433791606314105 32:-0.01854912215951447 33:0.0311882494075702 34:-0.23022836928454798 35:0.0028566952720928346 36:-0.17514750151333403 37:-0.19430072564490622 38:-0.12473768342786322 39:-0.15718911955011927 40:-0.006156841803293549 41:0.27876324428215205 42:-0.5644608554227517 43:-0.040145770702456875 44:-0.08565750306342752 45:0.2605176716721009 46:0.16567393482433793 47:-0.14722061773094486 48:-0.013198412109949983 49:-0.009556058406113772 50:-0.12156570917277963 51:0.16376558802630026 52:0.12325978235634334 53:0.25112736767770566 54:0.1815650680410904 55:-0.1322583230224059 56:-0.17185257616623406 57:0.16826171630214665 58:0.030562962901982755 59:-0.03280522163628529 60:0.11198251890895933 61:0.40415067190124954 62:0.5586520091527138 63:0.11314677305218968 64:-0.048077104102284086 65:0.24859826273901636 66:0.09678626795513061 67:-0.1342621384624108 68:-0.08917890581178149 69:-0.13909274519280124 70:-0.0019195075840581636 71:0.01698554755475672 72:0.056461520423848444 73:0.027346916975468975 74:0.09026408303052838 75:-0.3503903752563632 76:-0.06715348031917553 77:-0.05089989146719428 78:0.07544369763075649 79:-0.02156178341175846 80:0.08451086218011734 81:0.14735241634802265 82:0.09702089839666031 83:-0.034825244881074316 84:0.016360507741207085 85:-0.12312248764912574 86:-0.15475275374008193 87:0.09255654136068536 88:-0.1727492412681255 89:-0.17544305782560432 90:0.08417458877086631 91:0.09143690751894645 92:0.09032218724281388 93:-0.14159239726008635 94:0.32674712671662476 95:0.2667761268018154 96:-0.11895577809099682 97:-0.3415140420307717 98:0.001470281603511639 99:-0.4351998009153632 
0.05977991271785228 0.04534316777168213 0:-0.005087791701683057 1:0.010559259646845152 2:-0.001702735404071615 3:-0.0712445805484387 4:-0.021452602871731796 5:-0.07834169177134233 6:-0.025816105036607126 7:0.11698460884001169 8:-0.12379160041243949 9:0.12279395107065477 10:0.024249491869119382 11:-0.04744641111492302 12:0.16632459929647647 13:0.07689285103597332 14:0.18749889059041291 15:-0.058330694434890105 16:-0.03372655530148981 17:-0.13336259522780397 18:0.03998000035951486 19:0.15734320853380598 20:-0.0061255111924289835 21:-0.08138920678333783 22:0.029776850426961043 23:-0.07055327631869254 24:-0.1527271990731512 25:-0.11477795226542697 26:0.08261278395664146 27:-0.026425368031404346 28:0.06383599514937631 29:-0.002359747747997762 30:0.03348985724897068 31:0.006174985728801791 32:0.21199757540454364 33:0.23561149931840797 34:-0.2732844890939687 35:-0.12222769017511798 36:-0.18149354364405995 37:-0.16272274107807605 38:-0.042651808555451746 39:-0.023323318486637372 40:-0.0683413066424822 41:0.14330183541152688 42:-0.23040428112261793 43:0.0803260815219996 44:-0.021059171988894055 45:0.20443037703365285 46:0.19032440235808254 47:-0.19070958610437783 48:-0.07419253232280822 49:0.06285854918814629 50:0.040722295992148085 51:0.019934121002559427 52:0.046348353390290024 53:0.18040166932738827 54:0.21963809062898293 55:-0.05170382896520086 56:-0.1060863515064079 57:0.22432372489653282 58:0.13273624501948708 59:0.07094549328764728 60:0.025058442876725637 61:0.21250892727812248 62:0.2850738517524184 63:0.16347051733984475 64:0.09569923429623665 65:0.03362369773357005 66:0.0993593316176212 67:-0.06515552730366639 68:-0.05607481430113553 69:-0.24735413940603923 70:-0.12383040337279631 71:-0.1308748705976538 72:0.14140316371052403 73:0.045124159639021444 74:0.06774087417968055 75:-0.10924372151207822 76:0.06898836973606147 77:-0.009779477220200972 78:0.077259487002074 79:0.0887537889404673 80:0.05038802365914759 81:0.052165499804690145 82:0.1554557140204021 83:0.02168749668747237 84:0.006553959822275462 85:-0.17657026494146252 86:-0.030528510390111376 87:0.030213373890059937 88:-0.2776783744117073 89:-0.1611267846752029 90:0.08029424087311017 91:0.007177365093101997 92:0.18187931448736094 93:0.07687526747284666 94:0.12968173739092462 95:0.06430269340177612 96:-0.20336814015774793 97:-0.2513962622246678 98:0.007014383929949187 99:-0.1858636074197516 
0.8641611462254771 0.7723365113283431 0:0.20609008159871864 1:0.02801202985085587 2:0.1186588057791811 3:0.012031280734002388 4:-0.2235376322872446 5:-0.4246475462960661 6:-0.17220241875540995 7:0.09240632856720561 8:-0.7528559319073145 9:0.7092404947529402 10:-0.1671104639944511 11:-0.31014572379676364 12:0.6951266562438423 13:0.11942830172502307 14:0.24313628564606354 15:0.06526996762459779 16:-0.11699788981711225 17:-0.5577447370146196 18:0.16395893250335344 19:0.5692773183241144 20:-0.21864906869845 21:-0.557367871830683 22:-0.4358992042086487 23:-0.7419634942292032 24:-0.19053494676971444 25:-0.19315793577160173 26:0.3449576560461469 27:-0.029315007566719203 28:0.5742256812236193 29:0.7709304830158237 30:0.0508098474019879 31:-0.2020135375445716 32:0.10664991629351786 33:0.4217454975592249 34:-0.40627833174467176 35:-0.029808209753077984 36:-0.17972882942218463 37:-0.10336277775967707 38:-0.13008938150820545 39:-0.15908566097698137 40:0.007931370434019471 41:0.5508730358189554 42:-0.3949117902427787 43:-0.019495181638790705 44:-0.047244875174059134 45:0.550683599335981 46:0.48575733569242213 47:-0.36456569953046813 48:-0.17282350389451762 49:0.2486020898403367 50:-0.0018084961084103223 51:-0.0758558773348697 52:0.41762283197302863 53:0.5615507419299183 54:0.4740261178685752 55:-0.3203576730239251 56:-0.4256191588974158 57:0.378957386435813 58:0.16867205372304858 59:0.24936486443393777 60:0.11115690951494334 61:-0.13356330630440041 62:-0.18618597527395206 63:0.5328008182109361 64:0.3500873441370303 65:-0.2551332124461416 66:-0.12433522504077944 67:-0.231494195577339 68:-0.18525140098299941 69:-0.22643744602816948 70:-0.020277821190436647 71:-0.37930035376901267 72:0.07355741244894802 73:0.11036216322326019 74:0.20893314492187826 75:-0.3140393642645008 76:-0.18521895908285912 77:0.29004179304672273 78:0.23906161130941178 79:0.04814458868129828 80:0.1295074041295033 81:-0.02257634160969274 82:0.06670675803837726 83:0.389066110362594 84:0.4370335169441127 85:-0.3340242921499732 86:-0.12251269257812879 87:-0.280440824315336 88:-0.17800296802071722 89:-0.2438154570716691 90:0.48364513180615987 91:0.48410094610865523 92:0.5101364599930542 93:0.31009695193609077 94:0.2881567679053488 95:-0.1567772673496147 96:-0.12859078923020664 97:-0.3103915787219318 98:0.48967309017734384 99:-0.42142798432055345 
0.8326492197332688 0.8914953383639993 0:0.005600642865335477 1:0.027054969319413934 2:0.11006300759276591 3:0.004294170378228251 4:-0.13077106262740326 5:-0.1682538115635714 6:-0.1660670342290204 7:0.016243439335400164 8:-0.2610954102476592 9:0.2237208853752112 10:-0.05975734559451125 11:-0.050184021932402546 12:0.03666949917997422 13:-0.10663630241771603 14:0.009580455611467949 15:0.04258679301560451 16:0.026090668437549314 17:0.013082238347771325 18:-0.08749109099774567 19:0.0032034009240361817 20:-0.08382230462837735 21:0.0841351187337057 22:-0.06427741132392768 23:-0.1423933800264165 24:0.013867610903366653 25:0.0797366937143538 26:-0.12037157547366614 27:-0.10466856231013322 28:0.29173739366283113 29:0.13211107258176952 30:0.051969796475750986 31:-0.05204241419850155 32:0.07215982915027563 33:0.037615001992201455 34:-0.15766667090097544 35:-0.03999293099828983 36:-0.13631182312603435 37:-0.14599293660824264 38:-0.26829192043495387 39:-0.1875166428696494 40:0.02080601368719667 41:0.20722807398805987 42:-0.3792070161478053 43:0.10608425704072127 44:0.1610612205619334 45:0.2871585756693464 46:0.19771359002674724 47:0.024052070837111455 48:0.1688994337042421 49:-0.11641483307255528 50:-0.20300853102820737 51:0.16117453209904686 52:0.10783878372499299 53:0.33838700939912053 54:0.2136019984796526 55:-0.2569764549127591 56:-0.3706723403905929 57:0.056537386331851694 58:-0.01938591681294228 59:-0.19058865853630144 60:-0.18037099949661636 61:0.1017444921840329 62:0.25289820308616523 63:0.15190527185783675 64:-0.150547969722342 65:0.2817539043745991 66:0.29627443090206 67:-0.05647066806396487 68:-0.009632011333157933 69:-0.058959381525440745 70:-0.0493318026111175 71:-0.051267232263578766 72:0.02749841978875794 73:-0.054314732566048726 74:0.03659290190756129 75:-0.5179990072463839 76:-0.20189193269512493 77:0.0073037753744901535 78:0.030500649059190532 79:-0.11384896957055245 80:-0.003784863876103831 81:0.1352493919844378 82:0.19113346409320295 83:-0.23780210559039652 84:-0.1948669245617722 85:-0.2661369200274888 86:-0.3212891051003058 87:0.20437623395151322 88:-0.08399391695486362 89:-0.2809425964135193 90:0.27594770590330675 91:0.16687897716385106 92:0.08506209596161723 93:-0.2710600229132569 94:0.3804494661777124 95:0.2620611380073421 96:-0.019741938984344436 97:-0.3628654385316773 98:0.1512199643944503 99:-0.37823109535166355 
2.3766244645042907 1.311202664541386 0:0.05061661294717999 1:0.05142775556874214 2:0.019621545028061925 3:0.005558619195912602 4:-0.019419799294564097 5:-0.017726528367842682 6:-0.03061743477507021 7:-0.014161245692654575 8:-0.0056627394480671086 9:0.018034843137482784 10:0.008801874467062163 11:0.03229512518344449 12:0.028442027705997217 13:-0.029594162464790755 14:-0.022497951729574573 15:0.03113125260726046 16:0.06430233835492119 17:-0.03980678458336739 18:0.03179885551063686 19:0.04319753488266824 20:-0.03682619172486934 21:0.035961100848181 22:0.013303572438621293 23:0.021920183726701924 24:0.003565862246069873 25:0.042886830734675294 26:-0.015401102080760008 27:0.02516467783003741 28:-0.026241481640609743 29:-0.044750314564489996 30:-0.028298805196008945 31:-0.02874726642789737 32:-0.0883659208608256 33:-0.1018630839926558 34:-0.013325591551246577 35:0.028112599854023753 36:0.0262262259904922 37:0.010531649896289382 38:-0.0598021679762174 39:-0.10893716971169552 40:-0.07047293102100013 41:-0.05104547616077573 42:-0.03255382247054062 43:0.010868830605779273 44:0.03939413797525397 45:-0.03550479499569512 46:-0.015421469466690116 47:-0.03017263465925174 48:0.029518880845619867 49:0.039335140818959266 50:-0.06719834630516158 51:0.03110514982098887 52:0.10604990562621498 53:-0.05735243407707113 54:-0.038189745803410294 55:0.046096667679924624 56:0.027649363716355055 57:0.03415030358108346 58:-0.04237133963736952 59:-0.11089765506648877 60:-0.00414345734804609 61:0.012402652076460154 62:0.015996237366749547 63:0.006204453848929598 64:0.01862235068044157 65:0.15123566492105797 66:0.11335772875694361 67:-0.06536033346814622 68:-0.03817595570904855 69:-0.04271176464189651 70:-0.007263272156426267 71:0.0946470399957091 72:0.007168063050964943 73:0.022008140133482113 74:-0.06336948068128517 75:-0.02292297380904047 76:0.02399629361633443 77:0.06996122149929764 78:-0.007012490781053512 79:-0.1127064523734692 80:-0.06137321364875786 81:0.09011022629854301 82:0.04562421828308651 83:-0.14900690962563568 84:-0.17443366019024725 85:0.08842797635848294 86:0.03871770888041486 87:0.024308858987477807 88:-0.07161119916563587 89:-0.09137587716232896 90:-0.08417841575587726 91:-0.05112847577620105 92:-0.05971995524602811 93:-0.08363849148341229 94:-9.992697090210306E-4 95:-0.04976201324065524 96:-0.07911659517562618 97:-0.07095070002858218 98:0.028747042771437803 99:-0.12470264134902019 
0.0 0.389163254755582 0:-0.00852487483585915 1:-0.0018654224097408106 2:-0.013353554563466428 3:-0.05606595296088527 4:-0.02989497897698073 5:-0.0540602167265859 6:-0.03780223927177151 7:0.107326238687693 8:-0.0945534783809994 9:0.10033507656172402 10:0.028291714176892815 11:-0.031178314816089448 12:0.08312566334207745 13:0.04741998251891808 14:0.15937091405532583 15:-0.049434050973607355 16:-0.003193138337942606 17:-0.0744152207289091 18:0.0644318840796674 19:0.12143359049590081 20:-1.882959966815514E-4 21:0.012191419413808463 22:0.0017947115422442868 23:-0.014394709099610764 24:-0.0326302218210302 25:0.007567099371239247 26:0.12357992145823163 27:0.04758803991528789 28:0.028573560302798288 29:-0.027752603371448862 30:0.005856936818717888 31:-0.0028662452411060036 32:0.018743034200144996 33:0.06515550862073079 34:-0.12330811448207588 35:0.007362364926202836 36:-0.2241621534872642 37:-0.2053247565815582 38:-0.0387409447529471 39:-0.07628044476140483 40:-0.10343261938432165 41:0.04886935693748388 42:-0.2308797305417987 43:0.04106604727736269 44:-0.04506497413044896 45:0.12081523770794651 46:0.09506693787729555 47:-0.1335971660644687 48:-0.004068075155748432 49:0.11524490473459192 50:-0.0175065830608488 51:0.011886653050566558 52:0.05172694109569131 53:0.0840398161941393 54:0.11262008980753252 55:-0.01685462068289568 56:-0.12290388276786249 57:0.2179678661098325 58:0.03849769567276862 59:-0.0021272386300073497 60:0.07720079518394239 61:0.21409694866785736 62:0.28227298643632814 63:0.20215605554373056 64:0.12339248851680752 65:0.08232838327103204 66:0.04902275670276848 67:-0.11362302936232177 68:-0.009360113865664297 69:-0.21040062881677826 70:-0.03579759592608111 71:-0.013788125179159076 72:0.06586877933068504 73:0.11234663627783273 74:0.07234127558276633 75:-0.10099664950436667 76:0.06406054081523953 77:-0.001969474251616433 78:0.08909559801905138 79:0.10877178982627658 80:0.09861154951261865 81:0.07756890725320424 82:0.038226482143283384 83:-0.018416337116532774 84:-0.03721754238244295 85:-0.0788191446742269 86:0.078823232177886 87:0.19000434370884223 88:-0.2358488723174846 89:-0.07807518969852546 90:0.029586578446121312 91:-0.06174069257518489 92:0.18954542483148895 93:0.12370512217120239 94:0.09940025951386688 95:0.08709763216813322 96:-0.12813570925850304 97:-0.12798865667903717 98:-0.12261296965938295 99:-0.09871500931563396 
0.8808151824749015 0.7869379852090903 0:0.12077510998240724 1:0.13417681727539077 2:0.15776640462850178 3:0.042059855556870494 4:-0.11955822631061999 5:-0.294969671343339 6:-0.2119753418476202 7:0.00785031804500765 8:-0.7661843948275833 9:0.663091569734232 10:-0.1269367920919726 11:-0.2862211183076036 12:0.4526338644920343 13:0.02884772766182984 14:0.13046291275792976 15:-0.1337657487915197 16:-0.2799605481757899 17:-0.31343812871175286 18:0.04283992515963341 19:0.34404689452260667 20:-0.27760848286307516 21:-0.5397350654573705 22:-0.5392597152104384 23:-0.8723209521729276 24:-0.05513933286558664 25:-0.02653176042970012 26:0.3779651495439379 27:0.03459130301008959 28:0.5534078231054829 29:0.8174386149418011 30:0.21737903621090754 31:-0.04458736676734332 32:0.11652844581464886 33:0.3577656600577835 34:-0.2861459294320133 35:0.03587516462566857 36:-0.2802323373505328 37:-0.18367465950597658 38:0.04076604117652777 39:-0.025225877199462395 40:-0.11756694545300075 41:0.4525798619171836 42:-0.4620499502557192 43:-0.06633631382339962 44:-0.22417229063537875 45:0.6531566727654957 46:0.5679625000184289 47:-0.07770776254143796 48:-0.056402538211712906 49:0.34426182262513955 50:0.09950021325778406 51:-0.17622534283240524 52:0.41804116127618385 53:0.5992731039858813 54:0.5788256443785293 55:-0.6217813773934112 56:-0.7124438417145553 57:0.4298728205305935 58:0.19493700577758966 59:0.14952012061266395 60:-0.005825625937163246 61:0.10080479653454531 62:0.04455833423125477 63:0.6093991937367105 64:0.11692757667991141 65:-0.11153434090814313 66:0.007119744095592895 67:-0.13302053648282647 68:0.0035619479207527893 69:-0.26920043251909065 70:-0.007879498661872968 71:-0.30534489829498057 72:0.07601671089784394 73:-0.03724744126785534 74:0.21268605727188428 75:-0.13174649807225886 76:-0.06548958315179876 77:0.3050090499163635 78:0.26070896909159363 79:0.24135431437302207 80:0.19865345826157751 81:0.03236217438261249 82:0.19396669899876862 83:0.19245739949409996 84:0.25750459178669316 85:-0.303084923030412 86:-0.10732285715147728 87:-0.32682100326097685 88:-0.223004241746495 89:-0.19829534674061738 90:0.3658546943315889 91:0.4122931557321937 92:0.5311281419211934 93:0.16153007330110672 94:0.2297337389013523 95:-0.18330424264942805 96:-0.2162868974055303 97:-0.3277057873000009 98:0.31059003375169725 99:-0.3507667168378918 
0.0 1.3520593554918017 0:7.383521006045756E-4 1:0.0159505988047914 2:-0.007989624698416103 3:-0.042530174090216664 4:-0.028652007154816944 5:-0.009546733800930437 6:0.0023678939205580844 7:0.028436098621410725 8:-0.01602323974641564 9:0.026370763566954072 10:0.0362489411980522 11:0.02826619968066392 12:-0.017228944612237077 13:-0.018358020381175573 14:0.017954385401425996 15:0.010038354529753523 16:0.004515365173703329 17:0.015286861156587896 18:-0.012214095445840836 19:0.00762001188535332 20:0.08690027903972598 21:0.09835668570378606 22:0.05324054781664712 23:0.06636539823691855 24:0.05336765288009671 25:0.035139720944652626 26:-0.025071880033214162 27:0.015079110126510127 28:-0.019619181845245418 29:-0.02974568568319886 30:0.08476130669011445 31:0.06795240277544556 32:-0.08906352734656878 33:-0.05313617576747275 34:-0.026271402484786547 35:-0.009237489152883334 36:-0.025403973208979358 37:-0.034839057243906936 38:-0.09930248453954274 39:-0.08257438402491722 40:0.005049129099423662 41:0.061537942583953884 42:-0.03209365552415474 43:0.021820715381655212 44:0.07735959811246258 45:0.026244961245669416 46:-0.005740844451328252 47:0.01696246536576414 48:0.08650365469889565 49:-0.10559515200957062 50:-0.09442786898663998 51:0.17978714626171757 52:0.08237954902562042 53:0.011000573825867584 54:-0.027308237666575884 55:-0.0038056332910704643 56:-0.06116562241470071 57:-0.03421221786941432 58:-0.030182008447315497 59:-0.02614242267341764 60:-0.002199675825449583 61:0.04540855151317149 62:0.05417359097764602 63:0.029757975642466915 64:-0.0381410697935959 65:0.13845662583413584 66:-2.512067493494008E-4 67:-0.07613302070200934 68:-0.04191696943786326 69:0.03923754490204729 70:0.08301385959469489 71:-0.10356876276860624 72:-0.09125319139304859 73:0.04134346182190816 74:0.07829792652657684 75:0.1173335886126906 76:0.07140875612655298 77:-0.1686027830417947 78:-0.11380639412570707 79:0.054568587156430835 80:0.06606293526518879 81:-0.012854014833889425 82:0.030484032606246752 83:-0.13655157637526624 84:-0.12297430360943418 85:-0.12093329775651551 86:-0.12063669584328392 87:-0.15051091636489566 88:-0.02187264271347134 89:-0.0010223994545213702 90:0.06661868817391992 91:0.09923218745056189 92:-0.054630706757052686 93:-0.14164739487317005 94:-0.09251201107405853 95:-0.04950203816280829 96:-0.034823789281272687 97:-0.004376785916035861 98:-0.027846759434261455 99:9.171099021353047E-4 
0.0 0.07525949348091528 0:0.05078385537636528 1:0.0416957843562308 2:-0.03270752291881656 3:0.02050063988542634 4:0.01899485261364307 5:0.018426631964785615 6:0.06419462218994888 7:-0.021205229012108723 8:0.15955817413310336 9:-0.13128461200401814 10:0.03292375305985546 11:0.02303706779229291 12:6.169842579730013E-5 13:0.0454272990705238 14:-0.01809359350384826 15:0.007497815679000445 16:0.039751479543761015 17:-0.0010990949476753832 18:0.004326238888168376 19:-0.007298552741132522 20:0.03198050717148083 21:-0.04167921531622495 22:0.025818593353124086 23:0.016737533448563123 24:-0.02155314208864824 25:-0.030556601670061564 26:-0.030385847813450852 27:-0.016286895894699265 28:-0.13257601057276472 29:-0.10735547421042911 30:-0.0966707094735899 31:-0.03880893769040473 32:0.028861998057753836 33:-0.025846962757832187 34:0.013203792336278844 35:-0.044681406386784556 36:5.944544578005146E-4 37:0.01497983264370134 38:0.04333761915295877 39:0.019079255536379718 40:-0.04525424267697699 41:-0.07185636297461373 42:0.13745228193062986 43:0.012129314284106789 44:-0.001552666224288051 45:-0.1309449097292285 46:-0.04980235352322625 47:-0.0496508816047696 48:-0.04508230447168238 49:0.039474066926460695 50:0.024325476269226168 51:-0.07754722047552916 52:-0.019943700127192727 53:-0.1271326505132757 54:-0.04830994327976499 55:0.10149143105488995 56:0.04675384222939236 57:0.005339435072624614 58:-0.022531431022402005 59:-0.005819308109743331 60:-0.04630855379015196 61:-0.060829449663047305 62:-0.11298210835995691 63:0.08594329348779173 64:0.17516219959093482 65:-0.0018359468749229065 66:0.07753724627050419 67:0.05565338001688887 68:0.0587461752681145 69:-0.06114615930560031 70:0.001164078069826271 71:-0.01249071105397072 72:-5.871371402507055E-4 73:0.01096723237445296 74:-0.0131685319824347 75:0.17851332373835166 76:0.16507302459785445 77:0.036641782709443134 78:-0.024418430200873517 79:-0.01914351206855077 80:-0.050269031295598975 81:0.05139868281475262 82:0.058516179185500734 83:0.1239861502603752 84:0.08889074506089713 85:0.019418411052982584 86:0.06708531179271628 87:0.01411467932042101 88:-0.05687381953873428 89:0.01195281293133342 90:0.01055802941637879 91:0.017615852672109435 92:0.09991605482201116 93:0.20352983662116508 94:-0.06340796311632026 95:-0.09490124508418547 96:-0.11341552741145972 97:-0.008429363063247973 98:-0.058489242642441576 99:0.07647142056701978 
0.0 0.38013939647187084 0:0.036790447976883765 1:-0.006409363090640306 2:0.01280864222858959 3:0.017009842914794987 4:-0.05380602212509589 5:-0.023789149729114764 6:-0.028564373356002266 7:-0.03698519234267787 8:0.060963899374623834 9:-0.07187688315131266 10:-0.015931447537112616 11:0.030174001517276464 12:-0.11179305199810974 13:-0.07721504572481207 14:-0.06868391610586833 15:-0.015592911959182778 16:0.005909218163167059 17:0.11655377809570028 18:-0.077754216977822 19:-0.08667558077102794 20:0.029217933764492932 21:0.08185842014316279 22:0.07540111228752167 23:0.06062380761461456 24:0.04699537424643736 25:0.09163699298141793 26:-0.10405806044309215 27:-0.023129024047394135 28:0.021198062878306098 29:-0.03181895853182768 30:0.13359798957617178 31:0.09684843720274015 32:-0.06430083680538415 33:-0.11001846224329623 34:-0.04818198768903164 35:-0.035278196656351436 36:-0.03829527562436739 37:-0.041954090196300524 38:-0.06610558385372194 39:-0.07532977913078182 40:0.019707040409688285 41:0.01113633593850991 42:-0.08369322870645586 43:-0.015390916230633827 44:0.04156375566286399 45:0.02342292580478687 46:0.04515933104487293 47:0.06428198729773603 48:0.08273568888282062 49:-0.09230468348141034 50:-0.07118424849357118 51:0.13217512994214176 52:0.08892644731134837 53:0.004327821926416481 54:0.022450160238470986 55:-0.08087896469953437 56:-0.13736236027878762 57:-0.046306408012306136 58:0.004790194269218378 59:-0.07948712860183761 60:-0.06839002923224917 61:0.04548595914984459 62:0.07732177262055684 63:0.07366816948457738 64:-0.06408185024463253 65:0.11695706422600749 66:0.09470791660795887 67:-0.033811653534684113 68:-0.04518337149208885 69:0.027803573266638577 70:0.013242086421409638 71:-0.02115855994448441 72:0.006810322015121104 73:0.005287657162182034 74:0.07631523417783621 75:-0.045445583517715944 76:-0.02190340170768674 77:-0.10092328461398202 78:-0.12525522665639358 79:0.01508289437992783 80:0.023284739011688073 81:-0.0014394901536589732 82:0.08488179866462381 83:-0.14224318649003598 84:-0.14408499049931597 85:-0.07937472530196164 86:-0.07918085525479938 87:0.09246104623003144 88:-8.431337832290605E-4 89:-0.05565138067933177 90:0.01556077319644831 91:0.040530729601817965 92:-0.010633296992162816 93:-0.1311650484786114 94:-0.01505603873560008 95:0.04476228444537125 96:-0.030129570461015092 97:-0.05144860639662425 98:-0.07142103723225582 99:-0.07533755978482813 
0.7639359464368809 0.0 0:0.055849134957521224 1:0.04452808255139381 2:-0.030134497090401315 3:-0.001045479958831805 4:-0.0066105796893568295 5:-0.014551618058400944 6:0.05553017555582246 7:-0.0033831054954047107 8:0.15834942286736017 9:-0.11611804370813565 10:0.013668680389736237 11:-0.008410321199015145 12:-0.0014146290599473628 13:0.054285782714811326 14:0.005092539770165226 15:-0.0058463131546961 16:0.033930829079011834 17:0.016918646279371792 18:-0.004146322070122351 19:-0.0010809333525393504 20:0.04932629490797472 21:-0.019058355019780725 22:0.02315016337860186 23:7.030576444917569E-5 24:-0.014890777237336781 25:-0.018334748413513808 26:-0.034189384463805074 27:-0.0032382639607356433 28:-0.16606633204256208 29:-0.13281521228247464 30:-0.08968093106776127 31:-0.036361291278746724 32:0.00658031703503675 33:-0.05305297927006231 34:0.014987479266252967 35:-0.03189040203648872 36:-0.06740999066624635 37:-0.036545957717051734 38:0.09759800012811529 39:0.04431436905418627 40:-0.06772038262731392 41:-0.1225644526464761 42:0.13428800291002696 43:-0.005192423227778281 44:-0.04807973622138421 45:-0.1301198122490392 46:-0.04653721578277302 47:-0.03971278617693306 48:-0.0027718053693915304 49:0.11163739219847679 50:0.0940569163605375 51:-0.10117112845595473 52:-0.026667809038087652 53:-0.10519084858591192 54:-0.05020693130840411 55:0.08426520417070378 56:-0.04964086891787796 57:0.07852312005288613 58:0.03893211644298424 59:0.016895382986680852 60:-0.0417495772590048 61:-0.026022763971530315 62:-0.08236479224799892 63:0.19040354208925026 64:0.21671491551650227 65:-0.008291607794320427 66:0.12754553868021146 67:0.061974600104207266 68:0.050194729541268863 69:-0.1365712123092544 70:-0.02527638834612569 71:-0.06641134474594776 72:-0.07145948328683148 73:0.05565143371776585 74:0.03353467061851331 75:0.18101932651184666 76:0.2000539932914779 77:0.03450153211330623 78:-0.06754267423769644 79:-0.03598111769302445 80:-0.056132062243358455 81:0.033440356556387885 82:0.07584244256049077 83:0.124995458219851 84:0.08457988894798212 85:-0.0547615082475466 86:-0.018025619637945946 87:0.08859129095808795 88:-0.12048219091319387 89:-0.019592562441825348 90:0.05609391065007513 91:0.08006701147630342 92:0.158836227501802 93:0.23135533883565698 94:-0.03944476401691484 95:-0.08794370821347135 96:-0.17426263545907228 97:-0.05894470577075412 98:-0.13008713413496978 99:0.011499989232299796 
0.6321370784050311 1.0506179801715316 0:0.03127468123597791 1:-0.010541591986366188 2:0.016643992125805803 3:-0.0014936727745595998 4:-0.023089911184388197 5:-0.00474542109991768 6:-0.010033025601202748 7:-0.02117027543618114 8:0.06054807112445335 9:-0.06273912376362405 10:-0.007999627538461977 11:0.038544228012707744 12:-0.13288909121613005 13:-0.0640547808995217 14:-0.047400543433488644 15:-0.022504761215002278 16:4.535817130347943E-4 17:0.15150508845251323 18:-0.10064711838548515 19:-0.12253700144367101 20:0.05733472084602207 21:0.08202604735720034 22:0.08868577423021579 23:0.0818324885926078 24:0.04426597087087203 25:0.06627607635510577 26:-0.08250109250164825 27:-0.01673180989890906 28:0.02926746148136965 29:-0.02336086327866126 30:0.17382615424190553 31:0.1283340831713498 32:-0.029663483688707706 33:-0.0580599137051772 34:-0.023616751008455904 35:-0.03805419142245483 36:-0.08521641858613173 37:-0.0777169923370641 38:-0.06506333879981113 39:-0.08924543538971254 40:0.008432439285679187 41:0.02590153000775654 42:-0.12028397984206535 43:-0.04790933364169785 44:0.019532009358805013 45:0.022466456912481562 46:0.04479337948399557 47:0.023018945796578368 48:0.0595493016050224 49:-0.09711979127554997 50:-0.06465406605360625 51:0.14946919966586103 52:0.0789754087795435 53:0.022016543722704198 54:0.041020657067222716 55:-0.06570457558582797 56:-0.1412080249467735 57:-0.035098496652916464 58:0.026237128868967202 59:-0.05862862707121939 60:-0.05754782417116121 61:0.07179884990247945 62:0.11649794954150224 63:0.0946420378536292 64:-0.050056597745116956 65:0.13136952897534684 66:0.08001109423530492 67:0.013686026310633077 68:-0.020666060366838455 69:0.02392722140347745 70:-0.01125495267090135 71:-0.05185597923026539 72:-0.041670282665408016 73:0.02386519020777525 74:0.06460306229196605 75:-0.08058105775646167 76:-0.0153521521634639 77:-0.1193236699705078 78:-0.1038338244720987 79:-0.015058936528448212 80:0.021373750507633228 81:0.038297218292297854 82:0.10805618780954007 83:-0.10038060355854668 84:-0.09557013249973983 85:-0.07901575860676982 86:-0.10785984178329612 87:0.06756843860845009 88:-0.025376576979969593 89:-0.08864477391599355 90:0.07101291610077676 91:0.0957556469330627 92:0.03208984283985596 93:-0.0998165385577879 94:0.0340116394598613 95:0.08055127528808022 96:-0.0581856962620083 97:-0.09664022356942752 98:-0.04542229459658114 99:-0.15654147138709504 
0.0 0.5430657610287216 0:0.02647486145932284 1:0.05192319799059028 2:-0.03362871357972463 3:0.0030915165877010813 4:-0.01399359084662076 5:-0.007729200540207257 6:0.04084298041291266 7:-0.006060947574302108 8:0.0686318433987223 9:-0.07102020528523911 10:0.005547770975296643 11:0.05748354224979279 12:-0.019973681311857703 13:0.007486236276868074 14:-0.025771357383686508 15:0.014433289008564882 16:0.03736884586237465 17:0.025443248816196595 18:-0.019022133460838298 19:-0.014754038309474408 20:-0.001984485068827688 21:-0.008223084339799762 22:0.06310582418783041 23:0.06388051160018654 24:-0.06770070267818601 25:-0.04540055598488325 26:-0.07716575270182542 27:-0.06886320569439326 28:-0.05221468861344599 29:-0.08024503980050982 30:0.026953600567241925 31:0.05086024106938365 32:0.06492886901569563 33:0.03324969330212598 34:-0.05124554412536899 35:-0.05318094123387716 36:-0.032209338785786384 37:-0.026569562884641025 38:-0.029787240268718852 39:-0.045883268756478184 40:0.032933243571693624 41:0.047842417696120076 42:0.024382068202409592 43:0.014992604580022186 44:0.05430463637000582 45:-0.0183375090881137 46:-0.017133677817867513 47:-0.06941628369918011 48:-0.008773786054293428 49:-0.054157070879060625 50:-0.017080839489478108 51:0.12518892918853583 52:0.08832437603570668 53:-0.02643751102098705 54:-0.036468927402716414 55:0.027615342023864287 56:0.002112729552403447 57:-0.010981686676395272 58:0.03940562646359355 59:-0.008755208937057626 60:-0.06819446741126726 61:5.283982023166973E-4 62:0.011384337468443391 63:0.03777786300575183 64:0.011765204591072522 65:0.0055979052723816635 66:0.01040258003708536 67:0.0028001762509713216 68:9.706646278203774E-4 69:-0.03797772538942283 70:-0.049966256525387866 71:-0.06457689498338645 72:0.022308707512191914 73:0.04398266642706574 74:-0.038482021835429314 75:0.0667771713036519 76:0.08337785620631878 77:-0.04261979729218146 78:-0.0694371616205531 79:-0.07332749070669611 80:-0.0659363376410849 81:0.010672585032422396 82:0.07312463380278386 83:-0.039257905599387556 84:-0.03842699061585875 85:0.012975635221211255 86:-0.009208771585750673 87:-0.09950435764165177 88:-0.08825997130263982 89:-0.09590580381037211 90:0.044475613895573814 91:0.05267678578752296 92:0.01777113770373021 93:-0.03733955755891424 94:-0.054524554844925896 95:-0.033987869162184416 96:-0.1345328523693834 97:-0.07745804132225113 98:-0.007647945619078735 99:-0.07486556264907379 
1.4267390633537615 0.0 0:0.05554065057539959 1:-0.011746696876606868 2:-0.003719304657240069 3:-0.01339091725997693 4:0.024292422049988164 5:0.019863886473752746 6:0.04743686180551099 7:0.005898330885616139 8:0.12584447523145043 9:-0.11201479714703473 10:-0.012861270548663916 11:-0.02537823845286277 12:-0.0038031682428335194 13:0.06032821418713292 14:0.018240190312141635 15:-0.037049769908766586 16:-0.02153074815278425 17:0.013432181486923106 18:-0.0013041324533372904 19:-0.016703563373369125 20:0.027692187112083985 21:-0.02746426781281259 22:0.05623983353504342 23:0.030677011062506518 24:-0.040154892011407414 25:-0.057979287075905224 26:-0.02777101200807766 27:-0.011560298721892034 28:-0.07078634542977946 29:-0.0823017376698905 30:0.01716346800963781 31:0.04152659928411496 32:0.04721944772134184 33:0.024237414233997247 34:0.01201490166059541 35:-0.010725873122328306 36:-0.08103831846213602 37:-0.051439027774178865 38:0.10409566903143018 39:0.1262309986337859 40:0.05117998804188785 41:-0.0218339212091725 42:0.07716747517563718 43:0.004150367101023953 44:-0.029396635772221735 45:-0.05801003021641357 46:-0.05176796776933981 47:-0.05225536514439182 48:-0.03045475039392942 49:0.014237844866122822 50:0.13936095247648536 51:-7.360427441308981E-4 52:-0.08299902395636417 53:-0.053711307661571825 54:-0.03965233668612809 55:0.021034030930035086 56:-0.03088110057692613 57:0.026238180163673477 58:0.12529990289227452 59:0.1282281389453157 60:0.02083735292193778 61:0.004257386882284381 62:-0.03529497974210485 63:0.09370357913469017 64:0.07005668643187604 65:-0.09097337163936554 66:-0.012756142313116624 67:0.1040664675194367 68:0.09541421479470288 69:-0.07477918539829054 70:-0.09446711632485914 71:-0.09589314558530468 72:-0.023264376526632727 73:-0.04286959469661258 74:-0.02735432635107084 75:0.14140783650779826 76:0.13898986760844717 77:-0.03576188043074193 78:-0.06707637893877332 79:-0.09385789553477888 80:-0.0728158466830701 81:-0.015540106835838141 82:0.030913784744818946 83:0.06974380259703962 84:0.07901600956527181 85:-0.04249401425176241 86:-0.06012559473301481 87:-0.11766817083215599 88:-0.09517686265964187 89:-0.05198607078341313 90:0.03169439999438138 91:0.08513497297714648 92:0.08575542421786662 93:0.08971466614685111 94:0.022227456152006844 95:-0.047491287071993224 96:-0.17009807040369523 97:-0.10569487524527525 98:0.05916332098760887 99:-0.020911974951146682 
0.0 0.14766737299923155 0:0.02182881186009969 1:0.02707890481797025 2:0.0011791368269103678 3:-0.021865310247981138 4:0.04169304326422186 5:-0.035130389241250205 6:-0.062292900622932114 7:0.053217704634482374 8:-0.05304155137341534 9:0.04995099839666624 10:0.01964417344663167 11:-0.03547548951839807 12:0.18147470613732739 13:0.0031733421765507107 14:0.12063563968737519 15:-0.06767462921048137 16:-0.024857990799444417 17:-0.1302821517300337 18:0.022579836606999477 19:0.11035683771311983 20:-0.011861212088379163 21:-0.056060495075986476 22:-0.004261806895138812 23:-0.006766249582226077 24:-0.037080731636426806 25:-0.03407907819899207 26:0.10322498717950927 27:0.01740774783281062 28:0.0341030652707983 29:-0.023406575229224964 30:0.12986382753864084 31:0.10587445205793027 32:0.0274140418063272 33:0.10832277486911965 34:-0.12066015400074631 35:-0.018316723560092826 36:-0.15582716565112245 37:-0.1213831275050869 38:-0.007880846775800275 39:-0.09192699456750264 40:-0.10335786625754245 41:0.10719560026963702 42:-0.3252813069010826 43:-0.04881785698475527 44:-0.12680740117391512 45:0.18339477847621113 46:0.17299829605586645 47:-0.13356679275665198 48:-0.06502294366700596 49:0.07095239020134088 50:-0.05884705389749022 51:0.09402570017849152 52:0.12491404806156671 53:0.18026250942830394 54:0.19206411384274963 55:-0.09540106415645239 56:-0.17091214985564127 57:0.17825425925915764 58:0.02966992942301303 59:0.020890377802862115 60:0.06446374203425524 61:0.275701113501003 62:0.34579387643479387 63:0.21229230638580496 64:0.12803647181419311 65:0.143269804765474 66:0.1000413753870683 67:-0.019933942224374987 68:-0.028024916056999832 69:-0.18687509401061111 70:-0.024827972837790972 71:-0.055306282299181025 72:0.020477175221470103 73:-0.05753613850898349 74:-0.02417808286670741 75:-0.09717669494135998 76:0.13122092170290287 77:-0.03161730752516917 78:0.021019592912867494 79:0.07289076194036143 80:0.06395553790288812 81:0.10728747335697685 82:0.08498029195868397 83:0.04846094837414952 84:0.02658974659491159 85:-0.0980736115767192 86:-0.07672815201099836 87:0.13506044414099605 88:-0.21815006325554215 89:-0.09297300772201586 90:0.11371160058886338 91:0.11117948045363381 92:0.24739905209640314 93:0.08107427667391164 94:0.19100313611919686 95:0.12605814731671933 96:-0.1763979489651622 97:-0.22850198776973799 98:-0.0539119067362407 99:-0.1785461704749186 
0.9138798943064057 0.8172206826868228 0:0.05954243828769453 1:-0.0631246172709856 2:0.1648276200918018 3:-0.017503791188449518 4:-0.0493143320565724 5:-0.18417586699581037 6:-0.10303598016408695 7:0.0065687519758171305 8:-0.4571499383704286 9:0.4087681339048603 10:-0.20560382090302165 11:-0.34271762000341516 12:0.25758457190729744 13:-0.04862666033747502 14:0.03141235291420793 15:-0.21075727001541408 16:-0.20233245451520426 17:-0.19052227365242866 18:0.06628640879551977 19:0.16893316099673633 20:-0.29596115729799166 21:-0.3665072208967182 22:-0.4516244315966799 23:-0.5966158384095193 24:-0.1029078758692728 25:0.020461338935688172 26:0.2827642577618182 27:0.037390130293892425 28:0.6349500365911624 29:0.5642333894128454 30:-0.099563484319115 31:-0.21716931958315117 32:0.22612189378871347 33:0.35894162458775436 34:-0.16355750586852702 35:0.018182097979626603 36:-0.2725898765079823 37:-0.19076063014169506 38:0.035087052552953864 39:0.051337777338959174 40:-0.046205996993484225 41:0.2906027056348606 42:-0.4207401288158404 43:0.08014639205746986 44:-0.0014073816779821794 45:0.34611617749181534 46:0.34649301455663245 47:-0.3081588836110327 48:-0.28987339974660437 49:0.3713278449746674 50:0.14642324323526362 51:-0.13796422291672839 52:0.1667553964917956 53:0.41078171600483887 54:0.479112134704254 55:-0.2184110885554909 56:-0.2836329454824251 57:0.5145582764195357 58:0.20920214304401183 59:0.22660734936425572 60:0.01777734572214882 61:0.06919487800106869 62:0.16913362001926888 63:0.40630720759464034 64:0.35225394935470744 65:-0.14415708413439196 66:0.15872400914712062 67:0.15434255035568767 68:-0.03669442636764156 69:-0.2763614293279047 70:-0.04387176089615353 71:-0.33632455661253385 72:0.12306117768402412 73:-0.11694843594263614 74:0.0921144584295487 75:-0.49509856830236326 76:-0.10561898381032973 77:0.3245831897513602 78:0.28402634938173055 79:0.0767171448070181 80:0.0479972032431318 81:0.2082735366819565 82:0.3660957421461351 83:0.5875486137754343 84:0.6257719360063851 85:-0.3526518712899099 86:-0.09995186246882921 87:0.12289699574649984 88:-0.08367633994421839 89:-0.04453102518387398 90:0.23091907260375655 91:0.29567706286593154 92:0.5503664783151501 93:0.4336289563663376 94:0.5515041386257582 95:0.36087242881465026 96:-0.031378370922914435 97:-0.327673731555314 98:0.2643269377078151 99:-0.7190595452857447 
0.43306988522208134 1.2389192958122899 0:0.058121190103089096 1:0.09335418569407386 2:0.09306191643349462 3:0.008049835357808666 4:-0.06789186887842126 5:-0.10575754052895002 6:-0.1511633648218776 7:0.0307096270488931 8:-0.21003346235657183 9:0.15849169321331077 10:-0.0437966868477481 11:0.0011212303633678742 12:0.13463550871018468 13:-0.08506552646237835 14:0.03959883747791757 15:0.044806530839365886 16:0.009529724319371661 17:-0.09234720459471286 18:-0.05327257044905375 19:0.06622106949129866 20:-0.010145180804806905 21:0.07014185092291503 22:-0.005121452109755712 23:-0.017795761687739307 24:0.03046904013169858 25:0.05374372585615472 26:-0.09429892693487571 27:-0.08610090287017896 28:0.2184431590570483 29:0.06501293911267562 30:0.28019631835981373 31:0.19287791430106402 32:-0.019723847049442952 33:0.016242594064041705 34:-0.18178171864526127 35:-0.01589042138246805 36:-0.11397854127123809 37:-0.13112105781759717 38:-0.2010002873208807 39:-0.21190081024870394 40:0.10934706068934337 41:0.31707292529311565 42:-0.49267622910804854 43:-0.032459020468897856 44:0.01699239789713452 45:0.2531246903710472 46:0.150387898801788 47:-0.02466454455603354 48:0.08244959609168126 49:-0.08623912868305007 50:-0.14939150295862272 51:0.20312717316874784 52:0.0979633931888939 53:0.257879112273106 54:0.15516749398123067 55:-0.2245515675062609 56:-0.2534543468197886 57:0.12966598175697225 58:0.030260932296998087 59:-0.053244606833230866 60:-0.02408527243141252 61:0.2928188365417686 62:0.4249351320975568 63:0.11611321787572258 64:-0.13132341428479397 65:0.20677421639113977 66:0.11670205328975962 67:-0.0469188209196745 68:-0.10018951914969891 69:-0.11688416709132994 70:0.024669013935189485 71:-0.10328672286337466 72:-0.018523621456882005 73:-0.006843351075287721 74:0.1950769146945997 75:-0.1759136435821473 76:0.006542302531430753 77:-0.06185134528929544 78:0.06569534038346125 79:-0.035587727189483866 80:0.0589370736750488 81:0.005895081375952652 82:0.04917863862897889 83:-0.12334193628532207 84:-0.08904671247535347 85:-0.22779568891997798 86:-0.24835309109588025 87:-0.04655926023690614 88:-0.20732356780422528 89:-0.1818899392075353 90:0.10428633609918012 91:0.12063366635345349 92:0.07614472761407026 93:-0.24168900269294996 94:0.15596620240605177 95:0.1273721354110138 96:-0.15606229495577775 97:-0.2999856584090848 98:0.04307292935547176 99:-0.34712460403036594 
10.582998615076653 6.601650923734358 0:-0.07156356080992414 1:-0.00681382872829838 2:-0.0452197459452405 3:-0.05802218905592883 4:-0.07892938353578412 5:-0.04883421199712934 6:0.08347283161039021 7:0.10867075490511859 8:-0.007319422770757812 9:-0.010658540498954755 10:0.07169556230544166 11:0.053623869616073364 12:-0.035091949528692844 13:0.09474736034064425 14:0.10408020484826891 15:-0.04649625249968809 16:-0.013714040956886704 17:0.018142062357434676 18:0.040317551944479814 19:0.07942842785513146 20:0.01512947874014599 21:-0.0250433580214209 22:0.13896954358391225 23:0.08823993788712933 24:-0.14926197795318896 25:-0.04328310913226678 26:-0.012075749903182673 27:-0.04271560369477726 28:0.04750543587646447 29:0.01901372342006994 30:0.13866501593554284 31:0.12006348294452521 32:0.11052146295423187 33:0.035239895961595435 34:-0.25332821667794 35:-0.07797412790172518 36:-0.017880186064619902 37:-0.026201175074678718 38:-0.0857202486143301 39:-0.07044319787042091 40:0.00942529058262704 41:0.147870240880481 42:-0.17412426642024267 43:0.02293237329597431 44:0.009730986736300015 45:0.15815283911794006 46:0.11074017339636368 47:-0.054161210988851724 48:0.00438004382294364 49:-0.0995265176608899 50:-0.0507594986253496 51:0.085021047484516 52:0.038620132506984914 53:0.14381848030636363 54:0.13381053818235547 55:-0.06132812302460031 56:-0.09397218229193742 57:0.012950469055692922 58:0.04416273036770596 59:0.007789645354430587 60:0.027759329219730077 61:0.17259394653122198 62:0.23222070146411453 63:0.06189851597069075 64:-0.05634896326358105 65:0.09216567573050119 66:-0.023822330258184893 67:-0.059486797420323 68:-0.03898277330516815 69:-0.02835274532512619 70:-0.026259634619608067 71:0.013005403502016533 72:0.13315558555933465 73:0.022432555016120067 74:0.051241959672220116 75:-0.08908316576761584 76:-0.03973595578710107 77:0.0079578876623187 78:0.03947039666744936 79:0.007767227807837438 80:-0.018983337693409392 81:0.06900769781762468 82:0.08118107055371655 83:-0.09610958508164398 84:-0.0844272058335036 85:-0.03793644456615157 86:0.02336650754418306 87:-0.03756724382715092 88:-0.07764187713350464 89:-0.06116576147166474 90:-0.06363355079062492 91:-0.06141671644568133 92:0.05144382603879899 93:-0.09512740363407819 94:0.02370332931483798 95:0.05151985597079711 96:-0.0705289439189878 97:-0.12322407607966675 98:-0.028647905620699982 99:-0.07791923625524903 
0.9180500695703596 0.8212624286432586 0:0.23979799524677367 1:-0.18863129908881857 2:0.2099056306539741 3:0.1743975182189901 4:-0.11470654372384533 5:-0.25898811815845146 6:-0.05996603955432305 7:0.0026758680661766528 8:-0.298229007225793 9:0.25141062398770214 10:0.09513184007575695 11:-0.019926490817272904 12:0.3304362869648173 13:0.08044544040687525 14:0.07740243343218349 15:-0.006581902939310663 16:-0.07234529635996838 17:-0.21093148921409155 18:-0.04378787688169952 19:0.15412601041544674 20:-0.24270531831382786 21:-0.5744665844906452 22:-0.06575337465096961 23:-0.34626925712121376 24:-0.10545592059164978 25:-0.11290204869574691 26:0.007753634589992207 27:-0.22107492660670366 28:0.6014553598610151 29:0.6244126767839342 30:0.2664852757148691 31:0.11433200812489956 32:0.1221423972731451 33:0.320038432898083 34:-0.11360244100724023 35:0.03329914438010854 36:-0.24530252379810685 37:-0.15631575944610082 38:-0.26150699021578744 39:-0.11423658343692865 40:0.1146817389440202 41:0.5850777441645857 42:-0.66955715907661 43:-0.0800931973359908 44:-0.1289456811116771 45:0.4578361624970719 46:0.31727846745428073 47:-0.3168225111080347 48:-0.10226568544275513 49:-0.196441007333319 50:-0.23365436228319728 51:0.02007739807838391 52:0.27195911487113433 53:0.47196738045732156 54:0.2836655759580214 55:-0.2489207113710525 56:-0.36755319185142465 57:0.06107388081625448 58:-0.03851779411924789 59:0.36652946080886956 60:0.15168706963904818 61:0.23470860180665717 62:0.3341462147595799 63:0.5025479215881986 64:0.35956543120150164 65:-0.11325188676658766 66:-0.20483291781765134 67:-0.09597565168715157 68:-0.011499414681525278 69:-0.09010574625410615 70:0.03189231117899407 71:-0.5564499907948267 72:-0.30225344539718174 73:-0.05017562686796001 74:0.0660555240312155 75:-0.24162645477969732 76:0.03704245504868418 77:0.22452436074918974 78:0.13458628242319412 79:0.3355948727915135 80:0.28761674157804756 81:-0.050850890310023676 82:0.12469286676678563 83:0.48861354137128776 84:0.5563964459731975 85:-0.32100249674119324 86:-0.3966651081159682 87:-0.29242706339887564 88:-0.15889984189549564 89:-0.08040375688966822 90:0.2715639718111226 91:0.41965191230714 92:0.47818306109368014 93:0.4104892640722597 94:0.18662255821764961 95:0.07972649127492647 96:-0.2100582259369155 97:-0.4056671445084324 98:0.13113340270623686 99:-0.6260775905177632 
0.898539397242238 0.8025570250052103 0:0.050000421348629774 1:-0.1878193387459106 2:0.06935566455159062 3:-0.04030337209067251 4:-0.2307562997015055 5:-0.34887211236028604 6:0.06759908635968989 7:0.15213042126286566 8:-0.6045442132805315 9:0.583859086177432 10:0.11807370694225768 11:-0.11309284755821321 12:0.5449547050473075 13:0.216565717772536 14:0.1451165085429556 15:-0.04634707384249896 16:-0.1444434379086622 17:-0.4551542819926379 18:0.18324843913965516 19:0.49076108341723285 20:-0.4345149080960198 21:-0.7216772836312606 22:-0.1856245069387675 23:-0.49608402713361943 24:-0.4349666229127706 25:-0.22672889371424468 26:0.27966745961160644 27:-0.028849490565113763 28:0.60972730913308 29:0.7361080307927782 30:0.1453534654834954 31:-0.0459258236906262 32:0.37872084603827605 33:0.502448559280854 34:-0.416164774518093 35:-0.030997798929830653 36:-0.19039699583560662 37:-0.12079652713331207 38:-0.20832811580475305 39:-0.15058714951163985 40:0.09597984408769585 41:0.557067947935493 42:-0.5687410977857926 43:-0.006730123275796045 44:0.021556302702559187 45:0.4558540756845735 46:0.36028794469952213 47:-0.4343865381979522 48:-0.28832926579876167 49:0.1392090705810218 50:0.01351215609662578 51:-0.17130448386016064 52:0.089039932143183 53:0.5414148598359694 54:0.4670978749509649 55:-0.16328872731936367 56:-0.21476433992483154 57:0.4045448326692934 58:0.17143939589661278 59:0.3340603034415927 60:0.11315289962821339 61:0.17165215424160638 62:0.2488711396354525 63:0.3733840433768535 64:0.3469120351800114 65:-0.212271565111497 66:-0.07858744231104133 67:-0.09433803511593183 68:-0.09964582258112975 69:-0.2332019112558496 70:0.0014601757185292862 71:-0.33808019543848933 72:0.114814632113514 73:0.041362541447792354 74:0.0981661427906499 75:-0.3911134366424706 76:-0.12838370715113895 77:0.3639010585663383 78:0.4232518560758241 79:-0.03304194412690101 80:-0.03697380663333023 81:0.08718870555106922 82:0.18941763253221877 83:0.6655336111241877 84:0.7506766436590663 85:-0.1655966906967698 86:-0.008591497160345966 87:-0.2905434480841786 88:-0.17135008236832408 89:-0.1397215340999819 90:0.2646871104583483 91:0.27938390392902346 92:0.4880822646072407 93:0.3851785734416372 94:0.4576341489954987 95:0.14353353704434396 96:-0.18557083494072868 97:-0.495842797298387 98:0.43810247698519594 99:-0.45426104032500864 
0.9746452871600109 1.0280346449479123 0:-0.008277525653063576 1:0.0842861691776996 2:0.09080128900803981 3:0.013551737755666524 4:-0.1514082644323317 5:-0.10438461028037907 6:-0.09628116569145646 7:-0.013025244337716978 8:-0.20765286668446153 9:0.14752636657115312 10:-0.08212405882231147 11:-0.010112092740856633 12:-0.2182468891608297 13:-0.09245453962650746 14:-0.049991139699863914 15:0.04243456272711491 16:-0.020617589654599543 17:0.23010877038850516 18:-0.1459389463414097 19:-0.16665443797992865 20:-0.025290016849624 21:0.04667974374562848 22:-0.00780453673556815 23:-0.04034652851633843 24:0.04377740459049686 25:0.09925466198906192 26:-0.13178625963667195 27:-0.1120427647372404 28:0.27627659129062765 29:0.15638773997517283 30:0.131745482888058 31:0.034676229723842156 32:0.071975916683062 33:0.05218093857639107 34:-0.1165697063853979 35:-0.0829118760024874 36:-0.022974521473422077 37:-0.036888051496826606 38:-0.23754593691623838 39:-0.1040284919740938 40:0.15633433792885554 41:0.17489397658138628 42:-0.27281965512751155 43:0.10005220116357123 44:0.16543335034123216 45:0.17729138347421275 46:0.2325918272365896 47:0.17934988920947564 48:0.228731145822282 49:-0.1835940893976892 50:-0.18755070564183232 51:0.14846084185102282 52:-0.024723352575261256 53:0.21701667498924324 54:0.2290600697862284 55:-0.1770821401277007 56:-0.34007381433589867 57:-0.0634175625034586 58:-0.07013614583827248 59:-0.17550323071233032 60:-0.2595673696538291 61:0.0719644099227908 62:0.17375061121537214 63:0.09229248169789855 64:-0.11478092254740402 65:0.08757134929471248 66:0.10932026732660997 67:-0.2849972048263196 68:-0.13413771014125567 69:0.14532900025177364 70:0.039659177859557256 71:0.06102282238884746 72:0.14295156602699333 73:0.011822950945663997 74:0.021924131597322056 75:-0.42251136686433804 76:-0.3110955597082787 77:-0.09383537300835455 78:0.040301150432180285 79:0.02838903443479976 80:0.14400689590166488 81:0.004296426139345881 82:0.15831576850144335 83:-0.3542203810512818 84:-0.3425284666932266 85:-0.14660187204163463 86:-0.10820574037267074 87:0.22173035013149853 88:0.042134304467009095 89:-0.1681452356828243 90:0.19836756206076056 91:0.02100596503837415 92:-0.07390794379539496 93:-0.256490733048556 94:0.13921379427463068 95:0.19302016898796517 96:0.10222247751630847 97:-0.13323940410341892 98:0.1171853759998369 99:-0.08772629485353688 
0.0 0.41813739584760906 0:0.0412856897380503 1:0.011584905154626308 2:0.004071049223152945 3:-5.627245342765827E-4 4:0.022098846801662627 5:0.027671396948328406 6:-0.01380916602188086 7:-0.05194257797671395 8:0.07560766432234968 9:-0.07177758127883421 10:-0.0053960950904080405 11:0.02088535427742619 12:-0.09017090805169928 13:-0.07794547028066058 14:-0.08036001393502543 15:-0.020094474698055923 16:-0.004125509526395968 17:0.10489650966259925 18:-0.06448826429216305 19:-0.09186873718986703 20:-0.00801957126956211 21:0.04122784455754814 22:0.0632594166633438 23:0.05706092763640605 24:0.01555314557158939 25:0.052441357920566326 26:-0.0803905275294722 27:-0.035990000501982845 28:-0.023030614648713737 29:-0.04895840535127662 30:0.1259657974040209 31:0.12535328400534979 32:0.014759021203030435 33:-0.03629733062255437 34:-0.004939725554796218 35:-0.024063408842827184 36:-0.06789710641042655 37:-0.054146129174921655 38:0.013618886609071333 39:-0.015444430566926284 40:-0.011914449777614963 41:-0.012731573379027123 42:-0.07568326762670965 43:-0.04921496012714193 44:-0.030108097288574363 45:5.648768925862989E-4 46:0.018316129610882827 47:-0.01170508369922532 48:-0.014512075824543468 49:-0.05108986290025595 50:-0.007889494092410958 51:0.12946000301670577 52:0.06685187389980143 53:-1.0909569407489491E-4 54:0.013383987898851743 55:-0.03585523976997006 56:-0.07348954847208253 57:-0.016670053856303733 58:0.04910745890239185 59:-0.03507035479163814 60:-0.09339469356634887 61:0.08563734083736022 62:0.1179550190323979 63:0.05262798581514435 64:-0.03007675205308359 65:0.0760212044777036 66:0.08902742854710227 67:0.04707357729515898 68:0.025853148435189002 69:-0.023956275944702475 70:-0.028201252368485957 71:-0.019735858398638825 72:0.026223657840084322 73:-0.031793690015689796 74:-0.05699507016356116 75:0.0026337968288860057 76:0.05282192552368999 77:-0.10953559045220948 78:-0.10362554518320972 79:-0.03734122507125674 80:-0.020164297059371488 81:0.025959045587289432 82:0.11532515565566366 83:-0.0857727742938856 84:-0.08961336031107175 85:-0.023198987694750303 86:-0.06591331370447585 87:-0.017729035217916418 88:-0.0596445232109153 89:-0.07142798451695687 90:0.04683015054236481 91:0.04970337272100821 92:0.02426531608361813 93:-0.08132840096622845 94:0.007450487473510094 95:0.05355497939504591 96:-0.09399828685221454 97:-0.09443862454735537 98:-0.03448923167012872 99:-0.1170887692591142 
0.0 2.0248106932464824 0:0.025939589539781267 1:0.04353308621867112 2:-0.061593168862193175 3:-0.021841887537141638 4:0.03972362777020792 5:0.034254629915931964 6:0.06366531876860547 7:0.003071004249388364 8:0.13860776271704556 9:-0.10616643742453985 10:0.021589166743745506 11:-0.011683534581432429 12:0.02214483226316579 13:0.058366902348332805 14:0.0356085488771713 15:-0.0330501999143592 16:-0.014131251894949749 17:-0.013262231636808374 18:-0.005253369679669327 19:-0.00726475041434635 20:0.08129043923851688 21:-0.036603875803118024 22:0.07433670347782209 23:0.052476692559392295 24:-0.028156895529478507 25:-0.09598942227367732 26:0.02334082871009508 27:-0.014131870179820987 28:-0.12213110636073461 29:-0.11522409717139472 30:-8.510494264644034E-4 31:0.04581373446844099 32:0.051707784512827884 33:0.08810537672032297 34:-0.013916879095753025 35:-0.07905722018084804 36:-0.014347482869219382 37:-0.0026125812921940984 38:0.09060612291987907 39:0.1089351674836756 40:0.0036822069504976263 41:0.020991564489121473 42:0.09429725592612719 43:-0.012248144437651444 44:-0.06536889138172947 45:-0.09980792971406394 46:-0.03845962811458961 47:-0.08780308956128292 48:-0.07012039830001655 49:-0.03698347418382055 50:0.07577404140642227 51:0.010484404857211064 52:-0.05627627108336344 53:-0.0997645666262219 54:-0.03486653604503041 55:0.07548435447955217 56:0.04921739145506298 57:-0.03242400044283947 58:0.05962681831163172 59:0.1554001951745501 60:0.07365531178847107 61:0.028293544033910937 62:-0.011516725094089011 63:0.011834699051737209 64:0.08399207010039107 65:-0.10049776643334044 66:-0.08273248175842367 67:0.03990471734848987 68:0.017701926254458315 69:-0.027084930647804262 70:-0.04911536132691079 71:-0.10746880920003571 72:-0.021905736542965192 73:0.020957537073589525 74:0.007967785748820455 75:0.17463620543310404 76:0.16321245965389072 77:-0.08201143950504036 78:-0.017479898740961147 79:0.08807296555335245 80:0.03393857417145434 81:-0.05916128904033541 82:-0.028883092600399785 83:0.06834871180477399 84:0.08342293081891641 85:-0.015777519367005895 86:0.002237880050900909 87:-0.09995435870829855 88:-0.05799907377944843 89:-0.0059427203363839765 90:0.02277138073143048 91:0.016652339398674214 92:0.008832701069100724 93:0.06891967293943513 94:-0.0366623442998055 95:-0.03897609357590518 96:-0.09642067544992687 97:-0.025514400109111574 98:-0.01723250572873686 99:0.13339406794062225 
0.22296637099237662 0.0 0:0.037112616065688844 1:0.02662041085481685 2:-0.04007583120997262 3:-0.004624448046512479 4:0.021464872593230145 5:0.022542104347305875 6:0.07136644071211004 7:-0.007842695743724214 8:0.12074468075370297 9:-0.1011783810584213 10:0.042707545166730046 11:0.0016477283047095848 12:-4.576576177439548E-4 13:0.049956426123580804 14:-0.009431954914163166 15:-0.021528361813155174 16:-0.0021460110818453462 17:-0.004760215946513042 18:0.02690281908612788 19:0.013002280032662902 20:0.02262598836858243 21:-0.04619013370228425 22:0.028203854152471022 23:0.0039303200650205785 24:-0.003799631937897138 25:0.0072197220607189165 26:-0.011734817746560672 27:0.014269173933679791 28:-0.1342353301254334 29:-0.08337268597007905 30:-0.012015228945171525 31:0.02767507586056413 32:0.009256143296163996 33:-0.04045587923547275 34:0.044886339868065755 35:0.017836846476921443 36:-0.043687479968686896 37:-0.017568032555048126 38:0.08929161762608144 39:0.050753718935083764 40:-0.059317213514685184 41:-0.11057053331200846 42:0.06781581555722595 43:-0.0369930562533177 44:-0.08843917460192602 45:-0.12394003798196328 46:-0.05145096134240516 47:-0.04309089450333366 48:-0.04337417061440282 49:0.07004708467960935 50:0.0451243004539344 51:-0.07733787136465718 52:-0.010100861485604086 53:-0.09933375641752025 54:-0.034373940745613216 55:0.0844874978585771 56:-0.012882135863825465 57:0.021271536988710107 58:-0.020182542095849024 59:0.0029322156632215633 60:-0.07795558444952992 61:0.029637617108587026 62:-0.037912729948205166 63:0.14765753818258576 64:0.19247402618290604 65:0.008010158448992322 66:0.13204134464376302 67:0.07564846217985867 68:0.07133873712295083 69:-0.08045749745669234 70:0.009383031116503467 71:-0.016546496995143455 72:-0.03510405343967183 73:-0.0016712573605266172 74:-0.03278983174037304 75:0.2370641956267003 76:0.22922396570717798 77:0.033390345236582596 78:-0.045650407192587436 79:-0.00946340320279999 80:-0.01932131089031407 81:0.03767539075972667 82:0.08888213559339468 83:0.06837413736166305 84:0.017086799523054363 85:0.019564531576401815 86:0.004757358868143387 87:-0.02677742839158262 88:-0.10976763183943836 89:-0.0036030910172207306 90:0.03179218009927677 91:0.060619536144425334 92:0.11829049766735099 93:0.17815068342854506 94:-0.05712842588064132 95:-0.09198351674981975 96:-0.17181969931596844 97:-0.056795437789202874 98:-0.06416278050088668 99:0.020717008885826164 
0.0 0.2697959066356212 0:0.04466409494598032 1:0.022394354797116364 2:-0.023595396205202457 3:-0.0016473026031265557 4:0.027635094157696282 5:0.022673564367712142 6:0.052991902032387635 7:-0.004865784290716236 8:0.1250577012675252 9:-0.0988658501690517 10:0.02177996124169038 11:0.02026065792121733 12:0.024991704159092687 13:0.057455089898751574 14:0.006075294766793733 15:0.009414349699496762 16:0.026627147782019744 17:-0.009101824142123209 18:-0.014854409727529612 19:-0.006639039275526668 20:0.04313114169022597 21:-0.019426992981538712 22:0.057394525476336396 23:0.010621010094412894 24:-0.08152769740574016 25:-0.09733673797712464 26:-0.03790408958873873 27:-0.011223222204627577 28:-0.1143413001083825 29:-0.12111491957034522 30:-0.05493482034735711 31:-0.012237367828617637 32:0.08835848333896895 33:0.043542502637343605 34:-0.05523811966224306 35:-0.08454227974197616 36:-0.02923246335141352 37:-0.009294562278326143 38:0.0742085595160679 39:0.08844851773103421 40:0.022640836549106085 41:-0.03736183796468952 42:0.1596010463788167 43:0.02940849068831489 44:0.028793614083691573 45:-0.07810319208713064 46:-0.022164357383348293 47:-0.10417094252906306 48:-0.07170996419763918 49:0.03185761172917686 50:0.14855714337438242 51:-0.010924427645038443 52:-0.06338344029326998 53:-0.07311567213975105 54:-0.01332868465144012 55:0.062187278913332096 56:0.02919064684265508 57:0.048454418130176986 58:0.1338543702295191 59:0.1167679930091108 60:5.703946011972231E-4 61:-0.07147154614211584 62:-0.1185148776099241 63:0.056114339371032176 64:0.0958496929157193 65:-0.10278973132460492 66:0.005469780596044 67:0.08935217985158057 68:0.02706578743435564 69:-0.1135244838432378 70:-0.11200634471423107 71:-0.08585338422162729 72:0.021001716223443285 73:-0.03234526426177976 74:-0.02587770153733212 75:0.17085051739431378 76:0.17150140709371586 77:0.015129249412574437 78:-0.04162604803902947 79:-0.12666138083363312 80:-0.13480737299540466 81:-0.0027947542067608324 82:0.06817266131624801 83:0.06273692883564072 84:0.0601224947485546 85:-0.012366715093752919 86:-0.007974556875691773 87:-0.09252761079710976 88:-0.11241885196812315 89:-0.06780097944051088 90:0.0061669887381842065 91:0.06413988779987435 92:0.04641814522999631 93:0.07681647907026086 94:-0.019773097036944836 95:-0.0768790317441199 96:-0.16494829382196982 97:-0.07882471990414512 98:0.02097664171917845 99:-0.004934180918212397 
0.0 1.1512652978979823 0:0.04360048066232011 1:0.03781286001563236 2:-0.008280599743353387 3:-0.0037738752156748893 4:-0.04140952300609508 5:-0.04064235709594247 6:0.043735964775722246 7:0.031072932926293498 8:0.1050083245002775 9:-0.08291400792509902 10:0.007084111601317703 11:0.038073655179739534 12:0.04044004263266334 13:0.05760632169942187 14:0.03370853903669941 15:0.009100586117723162 16:0.04278895656963197 17:-0.03149752243093087 18:0.01460263460080937 19:0.05202870471455384 20:0.009795377682744116 21:0.006757232497377793 22:0.03811206471729778 23:0.02935735872124166 24:-0.0828813330308015 25:-0.06890157591041368 26:-0.07241393060443954 27:-0.02758965078511483 28:-0.08860487688695715 29:-0.10079841725219069 30:-0.026570584717845364 31:0.017876005449838597 32:0.03458622581424936 33:-0.029654167449306195 34:-0.0819000608530571 35:-0.05497687006139611 36:-0.009722301381337006 37:1.2669550257514553E-4 38:0.02381913120229301 39:-0.0027111930228571777 40:0.006400861353605259 41:-0.00895120831046523 42:0.08631388001893192 43:0.037223631821743514 44:0.03953541983524417 45:-0.048619971970232455 46:-0.04846557319692758 47:-0.10921334487022961 48:-0.037990566532447936 49:0.025732636117345175 50:0.05130323562480777 51:0.09826699290391659 52:0.0889927650266598 53:-0.06679550762043913 54:-0.06321431153134799 55:0.07564684644830504 56:0.04277992478455729 57:0.052526813637529354 58:0.07459400752064814 59:-0.0031868006594525265 60:-0.010524714944575112 61:-0.017334374524402552 62:-0.035721214658600835 63:0.06799777930253594 64:0.07047926792720173 65:0.028680936310860855 66:0.06535640897937617 67:0.03342965937484963 68:0.03293490925272435 69:-0.09121691506453974 70:-0.05744440621839144 71:-0.038451153378503376 72:0.05351148327106985 73:0.029658850956701288 74:-0.028105218610857206 75:0.12232656561984487 76:0.14233009703791938 77:-0.03046319376439603 78:-0.11623166411060702 79:-0.14226189669897885 80:-0.1382482192631472 81:0.07943740964359884 82:0.11753910930322808 83:0.0384346897409725 84:0.04035997696785088 85:0.036265992816912486 86:0.0577616183292241 87:-0.08029251580056825 88:-0.1205271406890082 89:-0.09885220454302775 90:-0.01948430424907819 91:0.02387678804193575 92:0.05302673612070983 93:0.028482064788882024 94:-0.041849553446219705 95:-0.06256022748087696 96:-0.19935812114518947 97:-0.1070704761073336 98:-0.016260121563469458 99:-0.10057412727342178 
0.0 0.9208490000696592 0:0.05549894587850516 1:0.08389567570618547 2:2.0191836503019172E-4 3:-0.0016738396343636739 4:-0.025458463827632758 5:-0.02821264523442999 6:0.040193209751587536 7:0.018208001471774652 8:0.07177606496611041 9:-0.053559406270981484 10:-0.006487704398174309 11:0.026779251931520105 12:0.012387532843690189 13:0.05453254613271117 14:0.00500640384993387 15:0.01466230062519188 16:0.026659696663379553 17:0.006788414239030075 18:-0.013885543045568237 19:0.0037445378407935295 20:-0.016192059151305425 21:-0.033516918175915074 22:0.016830922810454875 23:0.0064410284412456595 24:-0.0922731461174232 25:-0.0880256202232427 26:-0.07098305411777976 27:-0.02532878961341403 28:-0.07152608457963526 29:-0.07851747047914176 30:-0.028843653550914096 31:0.009873341801151266 32:0.08739976450339902 33:0.014443861443079417 34:-0.04858579207937527 35:-0.05969784378584114 36:-0.03956089810989558 37:-0.02550609996498503 38:0.03054556444881886 39:0.027578944480784635 40:0.036700500536538457 41:-0.030901572423944253 42:0.08466691083322365 43:0.04407577208917468 44:0.04578105650921509 45:-0.07232634273823406 46:-0.0358497715832036 47:-0.10962330692912282 48:-0.023584921896630966 49:0.04076438220054935 50:0.0856729812123773 51:0.07482916851682771 52:0.045672653100092865 53:-0.07492621794390218 54:-0.0315203123227553 55:0.10289052843251119 56:0.02490200662758149 57:0.06550970473771146 58:0.09390892483657251 59:-3.813818241904158E-4 60:-0.048841010491915825 61:-0.032342058986809155 62:-0.055022332673229875 63:0.099725861230798 64:0.1287474293532513 65:-0.009482180640970627 66:0.06038580831633605 67:0.01917011490717188 68:0.03841557665802189 69:-0.08558251768782867 70:-0.059013263161570115 71:-0.038538680179409604 72:0.05561700898792037 73:0.008590016259302948 74:-0.10052289965546794 75:0.12484156649290577 76:0.1101225010608922 77:-0.03307266095685307 78:-0.08598892112162874 79:-0.1518370025181026 80:-0.1576272374245887 81:0.10452671404535072 82:0.1353816477026188 83:0.056189433873459864 84:0.05893540297362228 85:0.039657528269247726 86:0.06482414177665785 87:-0.129065744224143 88:-0.11570986429222602 89:-0.08153330691621329 90:0.014834969552657923 91:0.056386459889591435 92:0.060863871359145956 93:0.05568665078888782 94:-0.03717292459768763 95:-0.0662975891138642 96:-0.21571704384323365 97:-0.09636179751527361 98:0.06585829744676287 99:-0.05230681685813428 
1.2127914051711572 0.0 0:0.03567385094195137 1:0.011700210850395314 2:-0.03871085144859882 3:-0.017953098629751765 4:-0.01653240750375691 5:-0.007191107401207951 6:0.08330165861213386 7:0.038488776605309694 8:0.16799305988122365 9:-0.12590616618256195 10:0.04520146519754563 11:0.0321076109240777 12:0.0038960919309533725 13:0.09108547756993526 14:0.04969126296026514 15:-0.030586712298196247 16:0.03380114914750513 17:0.005115797977646695 18:-0.007836127602383723 19:0.004387244136424128 20:0.06665131932097922 21:-0.01948866854107884 22:0.07116715887822352 23:0.054765858416665085 24:-0.06018764301020384 25:-0.08567162042178923 26:-0.003660810987728872 27:-0.0021195563902368366 28:-0.1784639038643805 29:-0.1649403190863083 30:-0.07628322164372472 31:-0.040375362419972034 32:0.0565763113567062 33:0.01647082880649571 34:-0.04232307711519572 35:-0.08168548858739835 36:-0.0348255948980973 37:-0.009573768941966146 38:0.06924485463439696 39:0.027706943994964272 40:-0.04018798826722401 41:-0.06346824657879706 42:0.17992183619627933 43:0.02546196267937701 44:0.0036116491826361655 45:-0.08909113167100886 46:-0.03982794222526505 47:-0.06979990653444557 48:-0.045414599757782934 49:0.06185161996817052 50:0.09580049486821755 51:-0.05058093252369885 52:-0.04829466654342415 53:-0.08264077902037918 54:-0.03050764850379164 55:0.06521582787265179 56:-0.012747376738429907 57:0.06358631170557738 58:0.08124494006560573 59:0.07682525790960563 60:0.023914632084672042 61:-0.05632659981302042 62:-0.11013509830275162 63:0.11450253295769215 64:0.14275380799651266 65:-0.046738258624259725 66:0.02308225876095157 67:0.09050928330544836 68:0.06941437477987128 69:-0.12054998947919814 70:-0.08143168844606277 71:-0.11848380988153748 72:-0.0486194274066725 73:0.0027338358025928563 74:0.011124636246568204 75:0.15078499438470633 76:0.16976458718001988 77:0.02914581658164201 78:-0.011066914666614507 79:-0.0023598102062852926 80:-0.058207062224885774 81:-0.011447570670959386 82:0.03667070598449713 83:0.10578598979143497 84:0.09620951119154149 85:-0.04832558832824296 86:-0.011461128777775824 87:0.03978250283158653 88:-0.10342416072767817 89:-0.034656170975422354 90:0.03356191821211339 91:0.046920384800537535 92:0.12266393104200092 93:0.17323330731133707 94:-0.04549885177706627 95:-0.08267207197441877 96:-0.14812584110581734 97:-0.06002832534392807 98:-0.08691140880868094 99:0.06226455150587734 
0.9702418290426119 0.0 0:0.03610265376308593 1:0.023045038532573257 2:-0.024400889209057215 3:-0.00580747330493286 4:-0.022455724967089304 5:-0.026273318567306487 6:0.05054631500051057 7:0.007495059376561813 8:0.10515078924705018 9:-0.08188687700123298 10:0.018761990089982528 11:0.02086616820350013 12:-0.0022009803054450798 13:0.03544364486894122 14:-0.012615605092950023 15:-0.0048922335890891466 16:0.03994009814485081 17:0.01359891807927215 18:-6.766781862747915E-4 19:0.00803121789053397 20:-0.009815676811758841 21:-0.01590168382603461 22:0.0378797085565235 23:0.03161065956029448 24:-0.0668361932467304 25:-0.041238376191318545 26:-0.04851206360931073 27:-0.03715932123955581 28:-0.10199206945550544 29:-0.10875296491367098 30:-0.030768350769193795 31:0.016961880020767883 32:0.06774121654895743 33:-0.00674259881155913 34:-0.024701958281056133 35:-0.03466835972650215 36:-0.06734962398361456 37:-0.05023630262183044 38:0.052376440943990965 39:0.02093660169922183 40:0.0011245965750322465 41:-0.015847153457794624 42:0.06503499311297142 43:0.01163457366811359 44:0.001152334679151797 45:-0.06276220060461604 46:-0.06011050851261851 47:-0.0855554656152975 48:-0.015963998718903666 49:0.04652394397298872 50:0.08381562796993602 51:0.04415279431483599 52:0.016715304664536666 53:-0.05470966103706818 54:-0.05469833376139266 55:0.05766575354746873 56:-0.01920470161423892 57:0.07514331237493528 58:0.09895718511041193 59:0.031134998005527843 60:-0.006427573219986354 61:-0.00459333883661052 62:-0.0174618441226386 63:0.11334793534438425 64:0.09046362830794402 65:0.005825214064622188 66:0.05373611966517525 67:0.08500845180366697 68:0.09227158393216463 69:-0.1486692510851809 70:-0.09600209577097644 71:-0.06393689243941499 72:0.017424133812799933 73:0.0018587305164396598 74:-0.05651152244958467 75:0.12114467928643192 76:0.1815466634915647 77:-0.012239856626329081 78:-0.07942068388728664 79:-0.15075650419576278 80:-0.11831706561012136 81:0.07889670460546633 82:0.08135086364443406 83:-0.0010931466960557184 84:-0.0053392933775317074 85:0.007537295342565897 86:0.008682114646176325 87:-0.10478372309042952 88:-0.16760621823310642 89:-0.10700996673998646 90:0.04404896667148598 91:0.057887721554483205 92:0.09603544126452622 93:0.06168490599823293 94:-0.01376972608962573 95:-0.0507424668414575 96:-0.2328494011821104 97:-0.13132418175643076 98:-0.005017757088081116 99:-0.11527296042703879 
0.16149326937867917 0.0 0:0.07172753566793917 1:0.0059521185025255005 2:0.02376714800833145 3:0.010597692372599058 4:-0.0016039590034910664 5:-0.08444478870587795 6:-0.060901272989492126 7:0.027818281558991468 8:-0.00961750871066984 9:0.01896881717522605 10:-0.06068666440670569 11:-0.08436951927916168 12:0.18248891801409403 13:0.04337711662697845 14:0.10797501128173886 15:-0.021142430768997886 16:0.014284932200557217 17:-0.12617037688631505 18:0.012165685391003005 19:0.10235003585192166 20:-0.01620527764571129 21:-0.09908117086722619 22:-0.04423757169289033 23:-0.06535237607832961 24:-0.04754915676379631 25:-0.10875295534162834 26:0.06961446839809718 27:0.017922634885303754 28:0.07505505929485619 29:-0.0020317346366491447 30:-0.02816614102248121 31:-0.07007981844150736 32:0.035227306492050865 33:0.13551999707940623 34:-0.06208195830548707 35:-0.04878066374515179 36:-0.049856533070152496 37:-0.03126308513759202 38:-0.04196900251348137 39:-0.07768872927860704 40:-0.05927059565224384 41:0.07244312893477234 42:-0.11228556903534966 43:-0.0027111644686315553 44:-0.0066608990391832336 45:0.05953308955737499 46:0.049110484771010834 47:-0.08205234754392464 48:-0.031513880771772196 49:0.025285090743621428 50:-0.04443359493244877 51:-0.009257697796240204 52:0.03213254288597402 53:0.04550761201418913 54:0.07693386299061808 55:0.019174329888695166 56:-0.02096179002822115 57:0.0937698522797748 58:0.016693669866849545 59:0.05993129365397295 60:0.05157849148964043 61:0.04678584036707492 62:0.09551620540104992 63:0.07228704484635523 64:0.07435279972225146 65:-0.04724589610322012 66:0.00684113225060516 67:0.016657687803840106 68:-0.0028435720225302094 69:-0.10590341236801538 70:-0.04436963542357612 71:-0.0734883417138969 72:-0.009728710655241212 73:-0.08441768819935969 74:-0.07238703901660436 75:-0.1838648949397626 76:0.04872466144570493 77:0.03170517761714979 78:0.123806502304867 79:0.17003887878771293 80:0.1473504107226592 81:-0.06562529873217479 82:-0.013315568786540844 83:0.05927954953856473 84:0.05666409009268628 85:-0.02174071809291078 86:-0.03795973217910645 87:0.1857153146340083 88:-0.05832974861481581 89:-0.03574454397399448 90:0.006871550769041474 91:0.0443707008422504 92:0.12068141092734001 93:0.05989149348620033 94:0.1434546043098102 95:0.09571347674250139 96:-0.005726944049800494 97:-0.10816458600580599 98:-0.020974307916528327 99:-0.1635611604803922 
0.22752861931036636 0.7993000495023324 0:0.05502480710438902 1:0.0363680059353066 2:0.07422663083499362 3:-0.0024130917959780305 4:-0.12005806112920522 5:-0.1273507839428121 6:-0.06541643596626774 7:0.08928177633286251 8:-0.16652465299408398 9:0.1092121515814497 10:-0.02386810065820717 11:0.014764673393366285 12:0.023473519404468353 13:0.014306443526265564 14:0.1182969092849642 15:0.02888332605866281 16:-0.02229874885709315 17:6.591272443599351E-4 18:-0.07166823962807582 19:-0.010359457331418182 20:0.09749322473297488 21:0.06111306004338711 22:0.04816122605117401 23:0.04242325205376089 24:0.0749827878374889 25:-0.016873533436131342 26:-0.08301397123743746 27:-0.06483302271933415 28:0.2606409727172982 29:0.17028242374447772 30:0.29355772407746966 31:0.15642473719649125 32:-0.09195294261858068 33:0.03452245066075093 34:-0.06809508404503811 35:0.0022147094591197336 36:-0.12186550539107165 37:-0.12417353853434572 38:-0.271844875247359 39:-0.22171873335064907 40:0.1638026139144262 41:0.2891708129036607 42:-0.3804179550515658 43:-0.034373747152997576 44:0.08045749784264263 45:0.18753383888323014 46:0.1448530851219868 47:0.005176903338128502 48:0.13837546008399407 49:-0.23265205367511385 50:-0.24474504426820667 51:0.286848423338855 52:0.13179872579238422 53:0.22554840735807236 54:0.13982858296345196 55:-0.16445918956986616 56:-0.2940116644018288 57:-0.04372989313620819 58:-0.06433130857622134 59:-0.043210901683852755 60:-0.025303096099858164 61:0.15060744778592539 62:0.2219008569498456 63:0.17729224821178455 64:-0.0293015920014103 65:0.1740268308144162 66:-0.05097864083465157 67:-0.13777473616487682 68:-0.11699390671797472 69:0.11630209814247484 70:0.1149451572043989 71:-0.227256043981385 72:-0.17160984831622475 73:0.1043923084154671 74:0.19901422965526502 75:-0.1382000310944977 76:-0.08544163284915557 77:-0.19649393900454903 78:-0.05937793726283251 79:0.060073156696326284 80:0.1451616993450831 81:-0.010662522561739355 82:0.027870625055390025 83:0.0067869848880237164 84:0.06266630955460195 85:-0.2932921317244339 86:-0.28634927965706375 87:-0.08362280870790707 88:-0.03380945312624775 89:-0.09981965634991817 90:0.2430303041726959 91:0.27158509450585827 92:0.13464028910367218 93:-0.05599195986321338 94:0.050209774611475834 95:0.041598123241085576 96:-0.029101672513163708 97:-0.14891022763888406 98:0.0824788637027179 99:-0.15289956885546852 
11.334207987553397 0.6935106260827092 0:0.016539375477514766 1:-0.05011877203442129 2:0.053329811400082035 3:-0.030272546580536425 4:-0.0743071155170491 5:-0.04637510443290917 6:0.025173344957236485 7:0.10240551456664823 8:-0.05237070030045282 9:0.041922752798509204 10:0.004249181791955972 11:-0.0010411976745725588 12:-0.07893815852538807 13:0.05663133015443213 14:0.11923395844722029 15:-0.019785596493818735 16:-0.020543947677995403 17:0.05816835534495286 18:0.029884551488147337 19:0.03013064489991719 20:0.05344689303482838 21:0.04291142366250241 22:0.08126327986456802 23:0.059410617628907904 24:-0.016606072006213262 25:0.035160825729572735 26:-0.015336899921261502 27:0.009164774988400612 28:0.1068829320155094 29:0.06894162412284496 30:0.08677618010069113 31:0.0406615501206279 32:0.007151719086448526 33:-0.02385994499064733 34:-0.0914716130629121 35:0.0173166422427821 36:-0.07157638284467994 37:-0.0829424324947318 38:-0.08362707957907807 39:-0.0074451315033998945 40:0.07354201181597217 41:0.0763331428624517 42:-0.1191592384814944 43:0.041438930609748424 44:0.03183685549907203 45:0.08312882859773926 46:0.06274255419374748 47:0.021724414310819236 48:0.0688366057944411 49:-0.09228461173762231 50:-0.03897054784223261 51:0.05588341844495744 52:-0.01757386256187717 53:0.07875237197986523 54:0.1020216574225573 55:-0.016157300345382947 56:-0.06497419059803052 57:-0.026790015199913822 58:0.0030797486198034002 59:-0.03113461552902769 60:0.06628810163908222 61:0.09934293095333431 62:0.13116586107284595 63:0.039843417265435006 64:-0.04103680935960882 65:0.05662264187438787 66:-0.06142682258115507 67:-0.08903687039547396 68:-0.03940786812910248 69:0.10847741954877281 70:0.025442596818617838 71:0.04343439372854918 72:0.04524600127893318 73:0.05204226010922022 74:0.07686259511881827 75:-0.19165994817821888 76:-0.16239352977042046 77:-0.03736266957498475 78:0.022715764112610736 79:0.08842228728200577 80:0.062237495553521954 81:0.07120008350908763 82:0.05890216730140213 83:-0.03982978446609123 84:-0.026196740125311282 85:-0.030727407454568135 86:-0.013724554695272614 87:0.15565235644739375 88:0.07332658639625365 89:-0.0018999670720954024 90:0.0046341299016313085 91:0.009451155079982797 92:0.00948915109133725 93:-0.02665401562212782 94:0.0732826419188815 95:0.10381353780902812 96:0.09397780254569889 97:-0.03721514796202338 98:-0.04140678295252585 99:0.014104882074215385 
0.15944479982296872 0.027927640070659804 0:-0.011677114869129163 1:-0.09229606318480821 2:0.16035457333529812 3:-0.03561887927181014 4:-0.19902901779973203 5:-0.207394399719192 6:-0.07913506088313103 7:0.047110185024302836 8:-0.20099051075967814 9:0.21397138667340665 10:-0.029191832985548227 11:-0.0920690521614002 12:0.0630205296625307 13:-0.004656360322928165 14:0.04405177169450463 15:0.037098206678453725 16:0.02315107157396212 17:-0.03495766159152018 18:0.007878493090337725 19:0.11977972348763433 20:-0.13451713798396916 21:-0.09839987826000586 22:-0.02712579037893073 23:-0.1717080080204483 24:-0.0672106252564798 25:0.11424062615932072 26:-0.16048571077289836 27:-0.2550656034095042 28:0.27241316708447466 29:0.14583215579025885 30:-0.02405419824137616 31:-0.060134659681759 32:0.14616301937897141 33:0.05179193365178269 34:-0.23701916543790724 35:-0.012933809147114889 36:-0.2338090286886993 37:-0.22608378701419737 38:-0.24265733800634354 39:-0.00770484153434468 40:0.16225761313610756 41:0.38143678796585434 42:-0.30082685744429016 43:0.22315635110854307 44:0.13889522245103292 45:0.2662585355280406 46:0.22286753505284834 47:-0.08514419353122729 48:0.18016631003562614 49:-0.18364763777052182 50:-0.12799343001867117 51:0.15499842698815808 52:0.1879422785661492 53:0.34413575920894635 54:0.21747862412122207 55:-0.1447184110375364 56:-0.39413921290729004 57:0.016061280660118814 58:0.011010325393627672 59:-0.043397294710329104 60:-0.07520825814396223 61:0.16497625374534322 62:0.27325375025925525 63:0.2974229573790613 64:0.0829677768253259 65:0.07684154657325698 66:0.0794801624960226 67:-0.2839885006285474 68:-0.11420723320270121 69:-0.01597029933765988 70:-0.017517551031087965 71:-0.10069291952083301 72:-0.008651747996777238 73:0.18012985820783303 74:0.08241657115978428 75:-0.36092543725328224 76:-0.1771247983190357 77:0.030309393629866878 78:-0.02142473701516932 79:0.09732935237367271 80:0.09482480579663881 81:-0.007923532949934675 82:0.07485901771596401 83:-0.20447290583182037 84:-0.18527710638644085 85:-0.13558257010602837 86:-0.204220909326342 87:0.20642482341729462 88:-0.08043756267805192 89:-0.16835371248862643 90:0.2135236435969058 91:0.1679781298662217 92:0.2321143427510678 93:-0.020635824636390455 94:0.1973524615937736 95:0.1583693853083051 96:-0.04997153207421412 97:-0.24734050971576013 98:0.04315739396219215 99:-0.3191233995343813 
22.412552348702892 0.0 0:0.014812763596303052 1:-0.09466272890872038 2:0.1055266834028861 3:0.011042357936650763 4:-0.17578283996330998 5:-0.19370247414954195 6:-0.08067868874344682 7:0.06632133273606024 8:-0.13728168338569435 9:0.11086014382639328 10:-0.02920259227063693 11:-0.04043824606053861 12:0.1111472024480907 13:0.036518292886978145 14:0.1038021433712976 15:-0.0057393508086471656 16:-0.026037516494081807 17:-0.11098736504976678 18:0.06980238380188018 19:0.14432450939115996 20:-0.08739860132124806 21:-0.06725415023296172 22:-0.05594213112209929 23:-0.13439367717581854 24:-0.0232768898260273 25:0.07154948353078219 26:-0.0502845492220377 27:-0.10742400573499215 28:0.24373120438141654 29:0.16352094702777883 30:0.10270521180428913 31:0.013812324004667533 32:0.03748229782177985 33:0.046720146266096864 34:-0.15796923104117408 35:0.04248517863750015 36:-0.12565291354989602 37:-0.13556764297693236 38:-0.14380721568962213 39:-0.03814732772250519 40:0.13846801557907215 41:0.327451958103668 42:-0.2571350974625465 43:0.06194447508902169 44:0.04475421406849118 45:0.1292264532308971 46:0.12577027986620093 47:-0.10707766129768138 48:0.04902421439786945 49:-0.1300035606849017 50:-0.10463403312953842 51:0.12971046599027608 52:0.15201831931735485 53:0.11651541367078 54:0.11119487059405146 55:-0.06061256219106351 56:-0.13265751740537887 57:-0.01967101533398427 58:-0.002528354954089947 59:-0.026211175565354815 60:0.07547096683603643 61:0.11050853911185578 62:0.18560059335754658 63:0.13855611237033832 64:0.08937449242133452 65:0.09154288460522572 66:-0.014231073753092748 67:-0.24147150498000652 68:-0.14069442453572437 69:0.06941607984543294 70:0.016618708221090732 71:-0.042748142084068304 72:0.010374124520606215 73:0.0973994535507353 74:0.0572427647810832 75:-0.32693199547298196 76:-0.22993798650562108 77:0.07594219210379465 78:0.03714598644364705 79:0.011726856787641023 80:0.06917615361601391 81:-0.005019927114706141 82:-0.07210832797697167 83:-0.02533221801551768 84:-0.016510258759136223 85:-0.04962197318603864 86:-0.021378988025444332 87:0.19092671271518843 88:0.002947393030448281 89:-0.07162681267080573 90:0.0045439126475273275 91:0.0032832814113463956 92:0.13053576048568205 93:0.032457268878976674 94:0.1522173873456397 95:0.10817126973810498 96:0.03470959147408474 97:-0.13776071994962566 98:0.03891453622773434 99:-0.28965432455382795 
0.8216356437280931 0.8298904030224143 0:-0.11197095212671997 1:0.1105980845820757 2:0.08944485765833698 3:-0.07095834330149858 4:-0.16724839998554514 5:-0.09639628405422294 6:-0.034004064216896245 7:0.09995981844762115 8:-0.19376087476470308 9:0.18040543754348715 10:-0.040299667875757124 11:-0.0058322219561537225 12:-0.12726687022743952 13:-0.003083877977407391 14:0.08223421451387371 15:0.0825575744376345 16:0.014146587837742851 17:0.09584760922380496 18:-0.010672248614269804 19:-0.01267510831123481 20:0.06440286568785905 21:0.09695385336209454 22:0.0694160023048932 23:0.09939602850535122 24:0.059531856967139044 25:0.14510498036726457 26:-0.1509559498133824 27:-0.18877459444478 28:0.17206904046343727 29:0.09234119862671272 30:0.22384058269945437 31:0.17990406706408382 32:0.06379367864114574 33:0.05472625181999178 34:-0.11522682448175099 35:0.0452612213438439 36:-0.15525983184864375 37:-0.19063884249328147 38:-0.20467176389503908 39:-0.06184879800164503 40:0.260891996346936 41:0.3008995001302892 42:-0.34932808656688735 43:0.015069722351328876 44:0.0019927450754245748 45:0.14078180895409304 46:0.14159688656708785 47:0.11324809997289494 48:0.3368568770666493 49:-0.2673170056189915 50:-0.23611003346464654 51:0.26841780758525186 52:0.08763071035413553 53:0.16659981925295525 54:0.12764785850486027 55:-0.09420490571494929 56:-0.33497097219750727 57:-0.15484337239467844 58:-0.1387998319648375 59:-0.050384537846983844 60:-0.10484864173625605 61:0.23590605640933737 62:0.3117316426242447 63:0.24083413753968483 64:0.025776678284894345 65:0.11001291214980992 66:-0.028919530223757626 67:-0.38639695184893774 68:-0.17321502201222946 69:0.19933018415297826 70:0.16994932271786825 71:-0.1182834937863413 72:-0.03546059300026662 73:0.25361521983170876 74:0.3416667222619577 75:-0.18022495551666962 76:-0.20483246473129332 77:-0.19304148585244568 78:-0.1650004648138204 79:0.007581819429142425 80:0.13240226244349357 81:-0.10975374396182964 82:-0.05520982460824345 83:-0.20483175214616423 84:-0.19621571141636834 85:-0.2711510678394818 86:-0.22478445454025198 87:0.02772470063051561 88:0.06494021956508568 89:-0.03100207463839071 90:0.21504008216223644 91:0.11601086805303636 92:0.02526741759281045 93:-0.0995306894734415 94:0.056714047996654596 95:0.09725496334238024 96:0.09362501474741736 97:-0.07619686337551573 98:0.042335255298465 99:-0.0771135978900858 
0.6563494118107497 0.0 0:0.022015870419217813 1:-0.03709681532629539 2:0.005633087838957128 3:0.0780965074395817 4:0.07718686618483997 5:0.0658259654208422 6:0.05428654165155162 7:-0.02240624433175762 8:0.033779691530160326 9:-0.004666066138874596 10:0.034568466108749786 11:0.00443757647901285 12:0.042884519951419446 13:0.03951359758975721 14:-0.01228959879030428 15:0.09988367968413965 16:0.06858075060979553 17:-0.045630527445102036 18:5.945004869155393E-5 19:0.019207369768759548 20:0.06506240372404254 21:-0.05664525572992601 22:-0.015332088422691192 23:-0.0625901825011738 24:-0.02473922590000812 25:-0.06461847519081064 26:0.04782466694895788 27:0.010976159277602274 28:-0.03623369013877579 29:-0.027172165838417164 30:-0.09896918247938381 31:-0.07288776403502396 32:0.09543217328366736 33:0.11114545898990726 34:-0.006118625759368863 35:-0.05990308097887719 36:0.049225769220215064 37:0.037210923715059845 38:-0.06633227449213472 39:0.028301216900477832 40:0.026242956985167057 41:0.06280902918945358 42:0.08035532162316751 43:0.03178934493049424 44:-0.015851223621770192 45:-0.061715873389037085 46:-0.02045746279672532 47:0.00800043702117739 48:-0.03838762338154041 49:-0.11284720998140989 50:-0.07281607219206525 51:-0.11122986949901556 52:-0.15711436838506457 53:-0.06044515382250505 54:0.013041761257002455 55:0.08815511072761743 56:0.13907358421374194 57:-0.1115458432180547 58:-0.1171843301844269 59:0.02783637461894706 60:-0.016676952926779686 61:-0.06340211993824245 62:-0.08043089002349457 63:-0.14151663942850756 64:-0.002625436124609562 65:-0.12828001190213548 66:-0.11321551767622813 67:-0.0042608997136401715 68:-0.016440683811137856 69:0.0599852924518759 70:0.04967959294560127 71:0.08758175972410559 72:0.1071997774265832 73:-0.08936637738240685 74:-0.0544528397570421 75:0.038143865408326635 76:0.02619407970949392 77:0.08568750705515181 78:0.2418986873617524 79:0.19000774735285927 80:0.07665023725980756 81:-0.05132787966243781 82:-0.02553705702969785 83:-0.050395207131793573 84:-0.05258658839446954 85:0.13774389763341635 86:0.17693049125290639 87:-0.1229531184981373 88:0.09852592961140534 89:0.16049827630659164 90:-0.1402996236491609 91:-0.11201984975989861 92:-0.14001973971722587 93:-0.0422284484536875 94:-0.06273077062668543 95:-0.05501442944555048 96:0.11868741418846632 97:0.1571591605221549 98:0.15414093567639536 99:0.2351632835473538 
0.859855339569426 0.0 0:0.022651797156678512 1:-0.019129726166113938 2:-0.06737759714891764 3:0.030506343892917585 4:0.061865583295723656 5:0.06576400801915643 6:0.08998545208201787 7:0.007934506107530123 8:-0.006461813484072864 9:-0.005975894727447526 10:0.07120978145094209 11:0.015681133118454652 12:0.07630834448945523 13:0.08728888399687192 14:0.009279172036821244 15:0.027316541202869183 16:7.337593124930945E-4 17:-0.10131295822136055 18:0.06653974809387239 19:0.07910527870705031 20:0.026619489732852858 21:-0.06923726751832483 22:-0.011341071429048723 23:-0.07857666258257119 24:-0.01738227037800586 25:-0.061012151052911245 26:0.07216449625247778 27:0.06617980915913031 28:0.045015279291438046 29:0.04038703347762867 30:-0.06224454130559649 31:-0.04695170713370849 32:-0.012450147148438258 33:0.04033432105990143 34:0.03000206514211159 35:0.017366437029854527 36:0.05680521368310333 37:0.03802184528769074 38:-0.08592720603488514 39:0.013106095004018903 40:-0.016371211124340302 41:0.050623115558383516 42:0.06638337415261567 43:0.0678205183544087 44:0.08041575465229461 45:-0.04711467392017642 46:-0.028226877727810653 47:0.0241495028670726 48:0.005531010651697326 49:-0.14096304581879857 50:-0.1105238837018985 51:-0.04002896132177757 52:-0.06550954036206699 53:-0.034078063160435865 54:-0.008253942427463523 55:0.02817995062778226 56:0.0646464464391212 57:-0.16588084903218994 58:-0.13623648117369008 59:-0.010513055993693933 60:0.0033170808421262767 61:-0.05564109373499272 62:-0.05616299739075577 63:-0.07225858488043803 64:-0.001788314468495529 65:-0.009218517587267628 66:-0.1004225488679186 67:-0.008643503778641006 68:-0.024436995756018053 69:0.13389392753718043 70:0.06798265164564285 71:0.058223425160297826 72:0.012544033569205979 73:-0.030190969595070907 74:-0.0034624034948770067 75:-0.05901849282141291 76:-0.06340990204386918 77:-0.01711496203032261 78:0.08953059392509764 79:0.05108325181637629 80:0.02585555929633252 81:0.012436178823631416 82:-0.016119884017663663 83:-0.007887965222932327 84:-0.016426350981256305 85:0.09628860050151007 86:0.06967539704900676 87:-0.08542690900120388 88:0.17147602950373986 89:0.11874056706726752 90:-0.03466396975872577 91:-0.009857995960933145 92:-0.04797799209364931 93:-0.0035758954397483475 94:0.06476939286283868 95:0.07514991707062782 96:0.1798677069837616 97:0.08205788520409747 98:0.1997833577957635 99:0.12007363443652432 
1.1771565336303444 1.646891017880087 0:0.039031114938440796 1:0.004830397712107453 2:-0.031151326604331668 3:0.017913515617970256 4:0.09876417203783504 5:0.09296887572030799 6:0.06145803351692944 7:-0.02033758689695807 8:0.05224666580944721 9:-0.0656822953289012 10:0.044955279175827804 11:-0.02582248002756831 12:0.017347371911251824 13:0.035901136101553245 14:-0.012684764885557823 15:-0.010562157431811298 16:-0.016661377135439942 17:-0.024870779661489643 18:0.016002027800579386 19:-0.011017806583537192 20:0.027326113754212268 21:-0.06257730869226644 22:0.03210592120601174 23:0.025305900321499927 24:0.0024621570653932637 25:-0.0652628343023092 26:0.020054665123089413 27:0.022979492994728533 28:0.08696406136255835 29:0.03390950923455818 30:0.031941999493400264 31:0.00907765292171322 32:-0.011458189000716714 33:0.053698908319828466 34:0.03156595663065753 35:-0.009046583577996405 36:-0.025063671601590027 37:-0.022109423789674874 38:-0.08344031633717329 39:-0.009092528160229192 40:0.04422417743412802 41:0.062413791302977646 42:-0.05210861349127498 43:-0.0054797870456764885 44:0.027932311973032926 45:-0.009641717759202247 46:0.0358515462732141 47:-0.02709348370406344 48:-0.05275985142933726 49:-0.1601553506763162 50:-0.09945076363498243 51:0.09661736505235277 52:-0.014191380232996882 53:0.01491365066361548 54:0.0773529811009073 55:-0.00963078381287041 56:-0.0065972186438815975 57:-0.1292857010362998 58:-0.06723349278488125 59:0.03224793126172941 60:0.02169611582705467 61:0.019906438022215686 62:0.022900301596981195 63:0.024410921291323936 64:0.0689327282895553 65:-6.810864006567391E-4 66:-0.10638150682137039 67:-0.017895554786263864 68:-0.004711565740931192 69:0.0938364201796662 70:0.017783123788266023 71:-0.04046548688800287 72:-0.045701399624472366 73:-0.008264017083515766 74:-2.5327457935185143E-4 75:-0.034426251034463305 76:0.0370988908630566 77:-0.1088346386334917 78:0.005660739857062969 79:0.09163690973313889 80:0.05463590041202967 81:-0.006455788691495481 82:-0.02255594527264253 83:0.09853823886583213 84:0.10310631750386792 85:0.008364826901575258 86:-0.007868003708097199 87:-0.011588331980271515 88:0.059938990999664245 89:-0.01707779390275169 90:0.047840644438745875 91:0.020455040233684784 92:0.05464841488892237 93:0.1171685757980289 94:0.07285683887060357 95:0.08131217215375877 96:0.07259770645079403 97:-0.044549765743411865 98:0.061635690957846254 99:0.09827318846730834 
3.820798278758207 0.0 0:0.05662449601738358 1:-0.03284984090607654 2:-0.022176461764309836 3:0.011863325842389714 4:0.060248653588936794 5:0.05744155856112705 6:0.033179069511750085 7:-0.039780098974310264 8:0.019035095282046176 9:-0.01968910372891797 10:0.052469312591732355 11:-0.005737136397280364 12:0.010871296588314518 13:0.008796632037286974 14:-0.04260288006601448 15:0.008280268850746095 16:0.0024008307643061796 17:-0.014090794786469362 18:0.0021530071363746544 19:-0.01620873406838482 20:-0.018254081698858258 21:-0.06916790050035676 22:0.01636421815744059 23:-0.003274394040640735 24:0.0074377906703915085 25:-0.02398073534070282 26:0.007790750832791993 27:0.013714463462016666 28:0.06645087705314615 29:0.013610291174652601 30:-0.009970414748921328 31:-0.017990042116047066 32:-0.025594820816420713 33:0.026544586309123756 34:0.03421590929560633 35:0.0028151259578933717 36:-0.00817929654142299 37:-0.01610276276263182 38:-0.07665417407828269 39:0.005830159158669279 40:0.04031293538345882 41:0.08393698645137962 42:-0.029497267342338467 43:0.0336281988197278 44:0.034000151708263364 45:-0.02676583996782389 46:-0.010849493432020206 47:-0.047806964523918 48:-0.04287460512857105 49:-0.14616186503882003 50:-0.08452690658638538 51:0.1049164678280743 52:0.019660458364471067 53:-0.03301354100146518 54:0.016526645660467274 55:0.012168872794731713 56:0.03573142009043826 57:-0.10973150424320786 58:-0.044555509797197884 59:0.01984028762842474 60:0.0786949002699001 61:-0.003706192610341225 62:0.00446769869629402 63:-0.019446349477589175 64:0.02135560058026052 65:0.0018253942159998267 66:-0.11259219596760849 67:-0.02710310787602558 68:0.0013034837387927308 69:0.07280751116268495 70:-0.01417002294092947 71:-0.04686755703740477 72:-0.05980271349638048 73:-0.019233769964355416 74:-0.004964800928993083 75:-0.05986827915691763 76:0.016972456438818485 77:-0.08279690959913782 78:0.020370958005420235 79:0.10736925874332863 80:0.05368217823632036 81:0.0028851969773158624 82:-0.039563716350718876 83:0.04746061526831717 84:0.07740019866810788 85:0.03267291890143566 86:-0.006468957463496995 87:-0.04648855734276708 88:0.06189512357345502 89:-0.031372471127150914 90:0.03575104171131026 91:-0.0027476643168612308 92:-0.019222860447492312 93:0.01660705458871633 94:0.04477617439849363 95:0.038658324165865156 96:0.06685907239585784 97:-0.0557121738014618 98:0.07408835637296173 99:0.10038707348435098 
